accountant 0.0993099 -0.0731116 -0.0639726 -0.0211719 0.0292446 0.0731116 -0.0169832 -0.0919987 -0.0048741 -0.0166024 0.0883431 0.00475987 -0.0974821 0.00293208 -0.0590985 0.196183 0.046304 0.040516 -0.000628303 -0.0141654 0.0310724 -0.0158408 0.0459994 -0.0192679 0.0511781 0.00982437 -0.0210196 -0.0194964 -0.0575754 -0.0478272 0.037622 0.0188872 -0.0125661 0.0456947 -0.0208673 -0.0472179 0.0956543 0.0956543 0.0292446 -0.0219335 0.02894 -0.0584893 0.0021229 -0.005788 -0.0804227 -0.0606217 -0.137084 0.0243705 -0.0121853 0.0618402 -0.0156885 -0.00451235 0.0252844 -0.0153077 -0.026046 0.0505688 0.0222381 -0.0295493 -0.0490457 -0.0362512 -0.0048741 -0.0211719 -0.106012 0.0306155 -0.0201057 0.0208673 0.00742539 0.0481318 0.0383836 -0.12429 0.0980913 -0.0380789 0.0325956 -0.0174402 -0.0490457 0.100528 -0.0278738 0.0743301 -0.00548337 -0.0408206 -0.00388405 -0.0539198 -0.0987006 0.081032 0.0174402 0.0871246 0.00386501 0.0493503 0.0737208 -0.00136132 0.0362512 -0.0734162 -0.174249 0.0499596 -0.0118045 -0.0275692 0.0134038 0.0785949 -0.0237613 -0.0499596 -0.0612309 -0.0600124 0.0785949 0.020258 0.0469133 -0.0205626 -0.0481318 0.0962636 0.0469133 -0.0840783 0.00533105 -0.083469 -0.0968728 -0.0364035 -0.083469 0.0865154 -0.0980913 0.0517874 0.0846876 0.0277215 0.0642773 0.00525489 -0.0283307 -0.109667 -0.0257414 0.0165263 -0.00616879 -0.0919987 0.127336 -0.00197059 -0.0865154 -0.0804227 -0.100528 0.00439812 0.0651911 -0.0222381 -0.103575 0.0121853 0.00769195 0.118806 -0.0261983 0.0327479 0.0466086 0.092608 -0.060317 0.0505688 -0.0865154 0.0312247 -0.0411253 0.115151 0.000742539 0.0581846 -0.0261983 0.0557476 -0.00399829 0.0332048 0.0306155 -0.0156885 0.0134038 0.0392975 0.0327479 0.0511781 0.0779857 0.060317 0.0379266 0.0392975 0.00605455 -0.0852968 0.136475 -0.00121853 -0.0118045 0.101138 0.0263506 -0.0139369 -0.0210196 0.0399067 -4.10539e-05 0.0420392 0.022695 -0.077681 0.0188872 -0.0341187 -0.0533105 -0.00161836 0.0254367 -0.0944358 -0.0645819 0.0554429 0.0324433 -0.0160693 -0.0496549 -0.000623543 -0.0124137 0.083469 2.31486e-06 0.034271 -0.0423438 -0.0703699 -0.0351849 0.0223904 -0.0186587 -0.0126422 0.0779857 -0.0338141 -0.00193251 -0.0382313 -0.071893 0.000289162 0.0124137 -0.0499596 -0.0277215 -0.0114998 0.046304 0.0919987 -0.000112452 0.066105 -0.174249 0.0533105 -0.00872008 -0.0642773 0.00390309 0.00517874 -0.0152316 0.00803466 0.00235137 -0.0664097 0.01546 -0.0192679 -0.104184 -0.052092 0.066105 -0.034271 -0.0980913 -0.0697606 -0.0654958 0.0272645 0.124899 -0.0523966 -0.0648865 -0.0938265 -0.0265029 -0.0444762 -0.0396021 0.0219335 -0.0234566 -0.0612309 -0.0639726 -0.0456947 0.052092 -0.0257414 -0.0508735 0.0112714 0.00316055 0.0423438 0.00178019 0.106621 -0.0889524 0.0423438 -0.083469 0.0300062 0.0225427 -0.0100528 0.0901709 -0.0100528 -0.0539198 0.0527013 -0.00959589 0.0533105 -0.0269599 -0.0364035 0.0351849 -0.0321386 -0.00386501 0.0354896 -0.0755486 -0.0475225 -0.0420392 0.00224666 0.112104 -0.0121853 0.0563568 -0.0712838 -0.0673236 0.0822505 -0.00635918 0.0246752 -0.00818697 -0.0261983 0.0852968 0.149879 -0.0213242 -0.00971013 -0.116979 -0.0293969 -0.0245228 -0.0293969 -0.0667143 -0.0502642 -0.042953 -0.00394117
acquaintance 0.0563669 -0.0657613 0.0330484 0.0193761 0.00276802 0.144943 -0.0315386 -0.0246605 0.0654258 0.0362358 -0.00135255 -0.0919316 0.049992 -0.0397588 -0.0066684 -0.0112398 0.0355648 0.0818661 0.122799 0.0405976 0.0113237 0.0266736 0.0370746 -0.0239895 0.0627417 -0.0879055 -0.0234862 0.125483 -0.0489855 0.0530117 0.0744848 -0.0858923 0.00396329 -0.0199633 -0.00671034 0.0290222 0.098642 -0.00455045 0.0593865 0.0281834 -0.0022228 0.0671034 0.0707941 0.00204456 0.0647548 -0.04865 0.00299868 -0.015266 -0.0489855 -0.0278479 -0.0379134 -0.0109882 -0.00267365 -0.00455045 -0.00603931 0.0523406 0.0157693 0.106694 -0.0251638 -0.049992 0.0761624 0.0318741 -0.0372424 0.04865 -0.0832082 0.0442882 -0.0587155 -0.024325 0.0513341 0.0142595 0.0110721 0.0254993 -0.0449593 0.0106107 -0.0637482 0.0811951 -0.098642 0.0161887 0.0966289 0.0714651 0.0865634 -0.0463013 -0.0168597 0.0563669 -0.059051 0.059051 0.0233184 0.0721361 0.0288545 0.0422751 -0.0577089 -0.0273446 -0.0469724 0.049321 0.0219764 -0.0556958 -0.0362358 0.0966289 -0.0290222 -0.099313 -0.0563669 -0.0848858 -0.00725555 -0.0129174 0.119444 -0.0919316 0.00859762 0.0318741 0.0362358 -0.0546893 -0.0677744 0.0593865 0.0832082 -0.106694 -0.0788465 -0.0573734 0.0364036 -0.0377457 0.0825372 0.118773 0.0283512 0.00964611 -0.034055 -0.034055 -0.0858923 0.00154128 0.0932737 0.0253315 0.0580444 0.0952868 -0.102668 -0.124141 -0.0580444 0.0567024 -0.0348938 0.00413105 -0.0111559 0.0417719 -0.0778399 0.12347 -0.0239895 0.101326 -0.10401 0.0905896 0.0123302 0.0858923 -0.0795175 -0.000686761 -0.0170275 -0.0135046 0.12951 0.010401 -0.0142595 -0.0405976 -0.0503275 -0.0587155 -0.0536827 0.0822017 -0.0229829 -0.0741493 -0.0330484 0.0263381 0.00377457 0.0197955 -0.00262123 0.0721361 0.0771689 -0.0684455 0.0175308 0.0503275 0.138233 0.0325451 -0.0165242 -0.00110616 -0.0429462 -0.012498 -0.0417719 -0.00964611 0.0436172 0.00595543 0.0610641 -0.00480209 0.0288545 -0.0506631 0.0337195 -0.078511 -2.8342e-05 0.0530117 -0.0241572 0.00252686 -0.0697875 0.0211376 0.0704586 0.138233 0.0421074 -0.00459239 0.0128335 0.0489855 0.0224796 -0.0248283 0.0306998 -0.00268414 -0.068781 -0.00536827 0.0560313 -0.0607286 0.0176985 0.0261703 -0.00448754 -0.0155177 -0.0112398 -0.136891 -0.00771689 0.0266736 -0.00469724 -0.0161887 0.0265058 0.0865634 -0.0463013 -0.0113237 -0.0165242 0.0419396 0.0286867 0.0509986 0.0879055 -0.0296933 0.124812 0.0972999 -0.0394232 -0.0587155 0.010401 0.0546893 -0.122799 -0.0012844 0.0530117 0.0654258 0.0136723 -0.0228152 -0.0838792 0.0295255 0.0607286 -0.0390877 -0.12951 -0.024996 -0.0129174 0.113405 0.024325 -0.0145111 0.0919316 0.000917429 0.0550248 0.0439527 0.0513341 0.02919 -0.0192083 0.0587155 -0.0210537 -0.0593865 -0.0399265 0.00788465 0.0042359 -0.102668 -0.0926027 -0.0516696 0.0214731 0.106694 -0.0644193 0.00335517 -0.05838 -0.0560313 0.0280157 0.00863956 -0.0352293 0.0283512 0.0168597 -0.0416041 0.00480209 -0.00083355 -0.0208859 -0.0280157 0.0372424 -0.0865634 -0.0185373 0.0630772 -0.0644193 -0.0744848 -0.070123 0.0419396 0.0657613 0.133536 -0.0127496 0.0691165 -0.0751558 -0.101997 0.00813629 -0.0266736 -0.00112713 -0.0825372 -0.0845503 0.0332162
actor 0.0536976 -0.0352089 -0.0556269 0.0234726 0.0160771 0.110611 -0.00904339 0.0196945 0.06045 -0.0340835 0.0707394 -0.0472668 -0.0101688 0.037299 -0.0996783 0.133119 0.0501607 0.0123794 -0.0400321 0.00484324 -0.0530546 0.100321 -0.00743568 -0.0694532 0.0271704 -0.063987 0.049196 0.012299 0.0115755 -0.0237942 -0.0177652 -0.0151929 -0.0572346 0.0540192 0.0816719 0.000964628 0.108681 0.0617362 0.00175844 0.116398 0.0279742 -0.0366559 0.0649516 0.0707394 0.00496382 -0.00468247 -0.117685 0.0919612 0.0990352 -0.0175241 -0.0209003 -0.00257234 -0.121543 0.0107717 0.00627008 -0.0736333 -0.00558681 -0.032315 -0.118328 -0.0209003 0.0479099 0.0874596 -0.0652732 0.0215434 0.0684886 0.186495 0.000753616 0.0565915 0.082315 0.00113042 0.0627008 -0.0166398 -0.1209 0.11254 -0.0816719 -0.0124598 0.008963 -0.00554661 -0.00892281 -0.0102492 -0.0202572 -0.028135 0.00422025 -0.113183 -0.0144694 0.0778133 -0.0405144 0.082958 -0.000226085 -0.0327974 -0.0345658 0.0217041 -0.063987 -0.00570738 0.00321543 -0.00149718 -0.00492362 0.00916397 0.0136656 -0.0745979 -0.0207395 0.00791799 0.0456591 -0.189067 0.10418 -0.0530546 0.0356913 -0.0938905 0.130546 0.00996783 -0.0819934 -0.0768487 0.0553054 -0.0157556 0.0194533 -0.030225 -0.0390674 -0.071704 0.0305466 0.0475883 0.0385851 -0.0278134 -0.0153537 0.00162781 -0.00659163 -0.0207395 -0.0318327 0.028135 -0.0258842 -0.014791 -0.0196945 -0.0729902 -0.048553 0.0926043 0.00663182 -0.0983921 0.0231511 0.0218649 -0.0217041 -0.013746 0.0231511 0.0418006 0.0110932 0.0332797 0.0033561 -0.0111736 0.049196 0.129903 -0.0495176 0.0581992 -0.0286173 -0.0755626 -0.0427652 -0.0207395 -0.0469452 -0.0294212 -0.048553 -0.0630224 0.0424436 -0.0463022 -0.0184083 0.0498391 0.108038 0.155627 -0.0504822 -0.0268488 0.0270096 -0.0164791 0.0171222 0.0397105 0.0377813 -0.0159164 0.0237942 -0.0242765 -0.048553 -0.0633439 0.0295819 -0.0257234 0.0254019 -0.00683278 -0.0329581 0.0472668 0.00205988 -0.0749195 0.0205787 0.0132636 -0.0332797 0.000145699 0.0926043 -0.0139871 -0.0472668 0.0411575 -0.0659163 0.0971059 0.0672024 -0.0265273 0.0167202 0.0135048 0.0443729 -0.028135 0.045016 -0.052733 -0.0768487 0.0311897 0.101608 -0.048553 0.0591639 0.0887458 -0.0192926 -0.0733118 -0.0440514 -0.0132636 0.0848873 -0.0585208 -0.0816719 0.0524115 -0.0508038 0.0289389 -0.0434083 -0.0319935 0.0300642 -0.0321543 0.0286173 0.0305466 0.0720256 0.0543407 0.0530546 -0.0919612 -0.00831992 -0.0810288 0.0401928 -0.0945336 -0.0836011 -0.00149718 0.0524115 0.0252411 0.0284565 -0.0100482 0.0848873 0.0132636 -0.0136656 -0.06045 0.0233119 0.0771703 0.0472668 -0.0511253 -0.0495176 0.0210611 0.0665594 -0.0694532 0.00037932 -0.0668809 -0.0421221 0.128617 -0.0258842 0.0913181 0.00428054 -0.0807072 -0.162701 -0.100321 -0.0990352 -0.014389 0.0155144 -0.030225 0.0668809 0.0345658 -0.0131029 -0.0331189 -0.00779741 -0.0665594 -0.0159968 -0.146624 0.00751606 -0.00578777 0.0355305 0.0749195 0.0459806 0.0171222 -0.0996783 -0.0363343 -0.0315112 -0.0572346 -0.0363343 0.0443729 0.048553 0.0453375 -0.132476 -0.030225 0.039389 0.0646301 0.014791 -0.00968648 -0.0549838 -0.0668809 0.016881 0.0482314 -0.0649516 0.008963 -0.0242765 0.0226688
actress -0.00948292 -0.0404605 -0.0418653 -0.00505756 0.0248663 0.0932838 -0.0279571 -0.0349814 0.0110283 -0.0255688 0.0157346 -0.0623765 -0.0168585 0.0415844 -0.0258497 0.0949697 0.04608 -0.0769873 -0.0449561 0.0169288 -0.0390556 0.0500136 -0.0730536 -0.0882263 0.0635004 -0.0324527 0.00821853 0.0147512 -0.034841 -0.0747395 -0.0724917 -0.0332956 -0.0660292 0.0113093 0.0550712 -0.0370888 0.106209 0.0654673 -0.0219161 0.06912 -0.00583024 -0.0435512 0.0427083 -0.0136273 0.0169288 -0.00207219 -0.0612526 0.104523 0.104523 0.0663102 0.0410224 -0.00384585 -0.0500136 0.0275356 -0.0491707 -0.0334361 0.0142595 -0.0302049 -0.0842926 -0.0310478 0.0261307 0.0871024 -0.0449561 0.0393366 0.0587239 0.146107 0.0259902 0.149479 0.101713 0.0273951 0.0710868 0.0373697 -0.0724917 0.0882263 -0.079797 0.0365268 0.0362458 -0.0122224 -0.016718 0.068277 -0.0615336 -0.0304858 0.0355434 -0.130373 -0.0646243 0.121943 -0.0379317 0.108457 0.0289405 -0.0522614 -0.0250068 -0.00783219 -0.0716487 -0.0278166 -0.00208097 0.0155941 -0.00370536 -0.0146107 0.034279 0.0127141 -0.0271141 -0.0169288 0.028519 -0.169709 0.0983414 -0.023321 -0.0421463 -0.0927219 0.111828 0.0088156 -0.0309073 -0.0160858 0.0654673 0.0133463 -0.0206517 -0.0398985 -0.0584429 -0.0741775 0.0252878 0.00895609 0.0587239 -0.0404605 -0.00523317 0.00491707 0.0415844 0.0382127 -0.0332956 0.0595668 -0.0612526 0.000150366 -0.00751609 -0.0620956 -0.0206517 0.117448 0.00611122 -0.0288 0.0254283 -0.067996 0.00484683 -0.104523 0.0293619 0.0401795 0.0429892 0.0243044 -0.0304858 0.0160156 -0.0029678 0.175329 -0.0747395 -0.0601287 0.0362458 -0.0865404 0.0320312 -0.0618146 -0.0334361 -0.0592858 -0.0415844 -0.0598478 0.0275356 0.0164371 0.0337171 0.0764253 0.166337 0.156222 -0.0556331 -0.0286595 -0.0121522 -0.0491707 -0.0311883 0.0120117 0.0221971 -0.00516292 0.000741951 0.00307317 -0.067996 -0.0876643 0.124191 -0.0200897 0.0561951 0.0241639 -0.0601287 0.0559141 0.0254283 -0.0595668 0.045237 -0.00172975 -0.068558 0.0259902 -0.0129249 -0.0344195 -0.0435512 0.028238 0.0231805 0.0899121 0.0438322 0.0413034 0.0302049 0.0245853 0.0354029 -0.0441131 0.0259902 -0.0831687 -0.0651863 0.0362458 0.06912 -0.0528234 0.0181229 0.105085 0.0196683 -0.0553522 -0.0359649 -0.00509268 0.110704 -0.0663102 -0.0435512 0.0441131 -0.0325931 0.0338575 -0.0181229 0.0117307 0.0311883 0.0390556 -0.0134166 0.091598 0.0398985 -0.0247258 0.068558 -0.123067 0.0147512 -0.0615336 -0.00565463 -0.045799 -0.130373 0.0238829 0.0899121 0.0170693 -0.010958 -0.0429892 0.0556331 0.0668721 0.0103961 -0.0899121 0.0407414 -0.0182634 0.0269736 0.0219161 -0.0713678 0.0205112 0.00839414 -0.0556331 0.0207922 -0.0536663 -0.0356839 0.133182 -0.0268332 0.0330146 -0.0324527 -0.0747395 -0.147231 -0.0545092 -0.0598478 0.0199493 0.0237424 -0.0273951 0.0640624 0.000711219 -0.0564761 0.0151727 -0.0127141 -0.0463609 -0.0272546 -0.0620956 -0.0217756 0.0334361 0.0320312 0.0719297 0.115762 0.0198088 -0.102275 -0.0206517 -0.0618146 -0.0724917 -0.0556331 0.00403902 -0.00054 0.0040917 -0.114076 -0.0195278 -0.0136273 0.139364 0.00920194 -0.0155941 -0.0477658 -0.0848546 0.0317502 0.0542283 -0.00444292 0.0539473 0.0528234 0.00153658
adjunct_professor 0.0644542 -0.0876392 -0.0137951 -0.013853 0.0249238 0.11036 0.070946 -0.0867118 0.0361686 -0.0500795 0.0486884 -0.0252716 -0.0257353 -0.0945947 -0.132618 0.0472973 0.0289812 0.0322271 -0.00257933 -0.0472973 0.00857844 0.0792926 0.00869436 -0.0602809 -0.0140269 -0.0345456 -0.0574987 -0.0183161 -0.166932 -0.0459062 0.026199 0.0202868 -0.0243442 0.0299086 0.103405 -0.00527458 -0.0289812 0.0361686 -0.00921603 0.000222793 0.0212142 -0.00938991 -0.100623 -0.0194754 -0.0765104 -0.00189827 -0.0718734 -0.0352412 0.10155 0.0245761 -0.0303723 0.0224894 0.0289812 -0.0537891 -0.013911 0.00102159 -0.057035 -0.168787 0.0769741 -0.0788289 -0.0284016 -0.0171569 -0.0037096 0.0259672 0.0364004 0.00892621 -0.0281697 0.020055 -0.0440514 -0.0820748 -0.0213302 -0.0144326 0.0510069 0.0512388 -0.0816111 -0.10526 -0.0973769 0.0264309 -0.0227213 -0.00739021 0.0217939 0.0410374 -0.0146645 0.0037096 -0.0222576 0.0114186 -0.04011 0.0885666 -0.00721632 0.0115345 -0.0607446 -0.0839296 -0.0765104 0.0533254 0.0213302 0.0498477 0.0510069 0.0908851 -0.0184321 -0.0581943 0.054021 0.0192435 -0.0461381 -0.0672364 0.0621357 -0.021562 -0.0322271 0.0792926 -0.0547165 -0.0184321 -0.0549484 -0.0359367 0.0445151 -0.016925 -0.0209824 0.0052456 -0.0505432 0.00625994 0.223503 -0.012288 0.0255035 -0.00405737 0.0125778 0.0549484 -0.0591217 -0.0382552 0.0301405 -0.0338501 0.0389507 0.136328 0.0336182 -0.144674 -0.0317634 -0.0172728 0.00996954 0.00875233 0.0649179 0.0256194 -0.001536 0.0162295 -0.070946 0.0746556 -0.0126938 -0.0428922 -0.026199 0.0639905 -0.0491521 0.0209824 0.0533254 0.0503114 0.0978406 0.0282857 -0.0130415 0.0245761 -0.0206346 -0.00521662 -0.0426603 0.0067816 0.0572669 -0.0440514 -0.00423126 0.075583 -0.0329227 -0.0195913 0.0932036 0.159513 0.00640485 -0.222576 0.0890303 0.0127517 0.0126938 0.0677001 0.018548 0.119634 0.0862481 0.00886825 -0.100159 -0.0723371 0.0417329 -0.0183161 -0.0173887 0.000353209 0.0593535 -0.0554121 -0.0156499 -0.0286334 -0.0672364 0.0403418 -0.0104912 0.0197072 0.0394144 0.0258512 0.030836 0.0517025 -0.0677001 0.0667727 0.000742644 -0.0649179 0.110824 0.0547165 -0.052398 -0.00197072 0.129836 -0.0514706 -0.0992317 -0.0978406 0.0607446 0.0792926 -0.075583 -0.0403418 -0.00257933 -0.0191276 0.00759308 0.0209824 0.0285175 0.0521662 -0.0797563 -0.0783652 0.0625994 -0.0296768 0.0333864 -0.0258512 -0.0459062 -0.0398781 0.075583 0.0144906 0.0876392 -0.0336182 -0.0649179 0.0139689 -0.0219098 0.0421966 -0.0955221 -0.0130995 0.00127517 0.0350093 0.0456744 -0.0551802 -0.0466018 0.00446311 -0.00944788 -0.0512388 -0.0173887 0.0187798 -0.0649179 -0.0384871 -0.145602 0.0658453 0.0412692 -0.0788289 -0.000949135 0.00176785 -0.102941 -0.0115345 0.0496158 0.0168091 -0.0505432 -0.0366323 -0.0797563 0.0281697 -0.00811474 0.0274742 0.098768 -0.113606 -0.024692 -0.0322271 0.027706 -0.0345456 0.0556439 -0.0561076 0.0396463 -0.0156499 0.000978116 0.061672 -0.0193594 -0.0144326 -0.0315316 0.00782493 0.0357049 0.0265468 0.0621357 -0.0198231 0.0280538 0.0412692 -0.0424285 0.00155049 0.0373278 0.0792926 0.100623 0.0728008 -0.0913488 -0.106651 -0.0271264 0.0217939 0.032459 0.018548 -0.0403418 -0.0268946 0.0769741 0.052398
administrator -0.0179479 -0.089575 0.0240403 0.0035196 -0.0298034 -0.0271689 0.0530205 -0.0987959 -0.0375425 -0.0299681 -0.0296388 -0.0385304 0.00757435 -0.0414943 -0.057631 0.117238 -0.000406504 0.00938561 0.00679222 -0.032932 -0.0437995 0.0981373 0.0307914 0.0355665 0.132387 -0.0437995 -0.0256869 0.0793661 -0.163343 -0.0326027 -0.0238757 0.0235464 -0.0400123 0.00580426 0.0447875 -0.0764022 0.0378718 0.0698158 0.0147371 0.00229495 -0.024205 -0.0777195 -0.024205 0.0902336 -0.0523618 -0.139632 -0.0043429 0.0222291 -0.089575 0.0235464 -0.081342 -0.0589482 -0.0523618 -0.0284862 -0.0599362 -0.0184419 -0.0711331 -0.0298034 -0.0375425 0.000388494 -0.0480807 0.0100854 -0.0599362 0.0563137 -0.0156427 0.0760729 0.0451168 0.112627 0.0245343 -0.0619121 0.0238757 -0.0283215 -0.0144077 -0.0248636 -0.039683 0.0015334 -0.0345786 -0.0829886 -0.041165 0.00473397 0.153463 0.0694865 -0.103406 0.102089 0.0754142 0.0378718 -0.055655 -0.0380364 -0.0065864 0.0428116 0.0698158 -0.0546671 0.00356077 -0.0212411 0.00687455 0.122507 0.0260163 0.0589482 -0.0414943 -0.0378718 -0.0375425 0.0424822 -0.016713 0.0480807 -0.0408356 0.0248636 -0.118555 -0.0227231 -0.0177009 -0.0212411 0.0041165 -0.0263456 -0.0191005 -0.0688278 -0.142266 -0.00110116 -0.0517032 -0.0161367 0.191005 -0.0355665 -0.0133375 0.00224349 -0.0302974 -0.0332613 0.0145724 -0.0203355 0.0253576 -0.0256869 0.154122 0.0123495 -0.0388597 -0.127776 -0.0622414 0.0266749 -0.0187712 -0.0800247 -0.0408356 -0.0573016 -0.0869404 0.0661933 -0.0441288 -0.0326027 -0.0599362 -0.00300504 -0.0288155 0.0273335 -0.1258 0.03145 0.0227231 -0.0065864 0.0416589 0.0424822 0.00749202 0.0684985 -0.0340846 0.0375425 0.0625708 0.0559844 -0.0477514 0.073109 -0.0202532 0.0284862 -0.015972 0.0569723 0.0307914 -0.00500154 0.0102089 -0.00633941 0.0889163 0.100113 0.0652053 0.0862818 -0.0253576 -0.0727797 0.0170423 -0.0122672 -0.0089328 0.0373778 -0.00149223 0.0102912 -0.0629001 -0.0266749 -0.0132551 -0.0935268 -0.00638057 -0.0111969 -0.0619121 0.0332613 0.0503859 0.09682 -0.0165483 -0.0437995 0.0193475 0.129093 -0.0829886 0.0434702 -0.0393537 -0.00126582 0.0217351 0.0599362 -0.0754142 -0.00938561 0.15478 -0.0355665 0.016713 -0.0470927 -0.0261809 -0.0139961 0.00625708 -0.0271689 0.0454461 0.00605125 -0.0337553 0.0510446 0.0350726 0.0322733 -0.0961614 0.00448698 0.0212411 0.0311207 0.0694865 0.00378718 0.0178656 0.0513739 0.0225584 -0.024699 0.0694865 -0.0283215 -0.00263456 -0.0553257 -0.0386951 -0.0349079 -0.119214 -0.0279922 -0.00967377 -0.0500566 0.0839765 -0.124483 -0.0543378 -0.0573016 -0.0428116 -0.125142 -0.0477514 -0.063888 -0.0599362 -0.0708037 -0.115262 -0.0177009 0.0615828 -0.032932 -0.04841 0.0533498 -0.0839765 -0.0271689 0.0645467 0.00325203 -0.0823299 0.0810127 -0.00666873 -0.015478 -0.0271689 -0.063888 0.0546671 -0.0546671 -0.0214058 0.0012298 0.0111969 0.119214 -0.0464341 0.0405063 -0.0605948 -0.0711331 0.0141607 0.100113 -0.0609242 -0.0596069 0.0530205 -0.0589482 0.0256869 -0.0671812 0.0279922 0.080354 0.0569723 0.0520325 0.0250283 0.102089 -0.00621591 -0.0421529 0.107358 0.0609242 0.00395184 0.0210765 0.0332613 0.0691571 0.0100031 0.105382 0.0155604 -0.0434702 0.0172893 -0.00535145
adventurer 0.054386 -0.00820597 -0.0623516 0.0607036 0.0631756 0.091742 -0.0157939 0.0623516 0.0311758 -0.0328239 0.116463 -0.0110557 -0.0447723 -0.0851498 0.0131158 0.0298024 -0.0277423 0.0502658 0.0856991 -0.00679825 -0.0150385 0.0181287 -0.0125665 -0.0368067 0.0237595 -0.0541113 -0.0736134 0.104377 0.073064 -0.0835017 0.0664718 0.0406522 -0.0350213 0.0340599 -0.0683945 -0.0483431 0.0835017 -0.0299398 0.0165493 0.00436049 0.0461457 -0.0480684 0.0310385 0.173596 0.00154506 -0.0278797 -0.0486178 0.0741627 0.114815 -0.037356 -0.0656477 0.0218368 0.0215621 -0.0873472 -0.0223862 -0.0667464 -0.0233475 -0.121407 -0.0549353 0.0295277 0.0193647 0.00878965 -0.0587808 -0.0336479 -0.0379054 0.0379054 -0.0215621 -0.0330985 0.00494418 -0.0328239 0.0513645 -0.0780082 -0.133493 0.0105751 -0.045871 0.0109184 0.0236222 -0.0444976 -0.0453217 -0.00133905 0.0856991 0.00954502 -0.0298024 -0.0557594 0.00631756 0.0741627 -0.0977849 0.018678 0.0351586 0.0851498 0.00830897 -0.0785575 -0.0933901 0.0428496 0.138437 -0.0109871 0.0281544 0.0579568 0.0127038 -0.106575 -0.0259569 -0.045047 0.0477937 0.00995703 0.0999823 0.0368067 0.0122231 0.00552787 0.0281544 -0.0428496 0.0585061 -0.0260943 -0.0203261 0.0650984 -0.0136652 -0.0420255 -0.0763601 0.00968235 -0.00187124 0.00868665 0.0193647 -0.0307638 0.0103004 0.114815 0.0210128 -0.0780082 0.0226608 0.0379054 -0.0219741 0.0464204 -0.0648237 0.00593988 0.00216308 0.073064 -0.00286694 0.0791069 -0.0725147 0.0310385 -0.0339226 0.150523 0.053562 0.080755 -0.0018884 0.0867978 0.0336479 0.044223 0.00803429 0.00260943 0.00166523 -0.0884459 0.00334762 -0.0911927 -0.0219741 0.0546607 -0.0884459 -0.0461457 -0.00166523 0.090094 -0.080755 -0.0664718 -0.000746777 0.099433 0.114815 -0.00238625 -0.0497165 0.00769095 0.0846004 -0.053562 0.0201887 0.0193647 0.054386 0.0656477 -0.054386 -0.035708 0.0125665 -0.0681198 -0.0510899 0.0129098 0.0428496 -0.0774588 -0.0596048 -0.0983343 -0.090094 -0.00655791 -0.0260943 -0.0225235 -0.0303518 -0.0453217 0.0475191 -0.00521886 -0.0758108 0.0155879 0.0447723 0.12745 -0.0274677 0.05521 0.0211501 0.0425749 -0.0758108 -0.0175793 0.0390041 -0.0319998 -0.0274677 -0.0343346 0.0309011 0.0609782 -0.0162746 -0.0579568 -0.0878965 -0.0999823 -0.0708666 0.01909 0.0846004 -0.0689439 -0.0719653 0.0192274 0.0151759 0.0100257 -0.0111244 -0.00714159 0.0062489 -0.0469697 0.0867978 0.0159312 0.000660941 0.103828 0.0579568 -0.063725 -0.053562 0.019502 0.0708666 -0.0106437 -0.091742 -0.0747121 0.0477937 0.0598795 0.0763601 0.0612529 -0.0081373 -0.0563087 0.0227982 -0.0835017 -0.0273303 0.128549 0.113167 0.0480684 -0.104927 -0.0758108 0.0318625 -0.0560341 -0.0332359 -0.0774588 -0.0856991 0.113716 0.0206008 0.0256823 0.132944 -0.103278 -0.0587808 -0.0725147 0.0112617 -0.0453217 -0.0104377 0.0119484 -0.0878965 0.0472444 -0.0177166 -0.036532 0.0137338 0.0274677 -0.0259569 -0.0258196 0.00552787 0.0157939 0.00370814 0.0359826 -0.0200514 -0.0245836 -0.0714159 -0.0241715 0.00861798 -0.0330985 0.0315878 -0.0164806 0.121956 0.053562 -0.134592 0.0179913 0.00927034 0.0703172 0.0532873 -0.0955875 -0.0856991 -0.0309011 0.0414762 -0.0114678 0.0210128 0.0623516 0.0571328 0.0109871
advocate -0.00893403 0.0233346 0.00697589 0.00950516 -0.0717986 0.0252927 0.0321462 0.0783258 -0.0106882 -0.0367152 -0.0342675 -0.000517582 0.00893403 0.00673112 -0.0212132 0.0874638 0.110962 0.00444662 0.0190919 -0.0636397 0.109656 0.0913801 0.0139518 -0.0204789 -0.0946436 0.0132991 -0.068535 -0.015502 -0.163179 -0.0926855 0.0324726 -0.0347571 -0.107698 0.0133807 0.0926855 0.0819157 0.0505854 0.118141 0.0183576 -0.00958675 -0.000713907 0.0323094 -0.0142781 0.0571125 -0.0881165 -0.137723 -0.0796312 0.0499327 -0.00554808 -0.0172969 0.103782 -0.0327989 -0.0691878 0.0483009 -0.00186636 0.0669033 -0.0789785 -0.0115041 -0.0324726 -0.0398156 -0.0972545 -0.040142 -0.0698405 0.0191735 -0.00962754 0.0301881 -0.0125648 0.0825684 -0.00314119 0.0293722 -0.00373271 0.0460164 0.063966 -0.00244768 -0.0747358 -0.0848529 0.0015298 0.00885244 0.054828 0.105087 0.111614 0.109656 -0.0380206 -0.0476482 0.0100355 0.0135438 -0.058418 -0.0753886 0.0613552 -0.0326357 0.0208053 -0.0210501 -0.053849 0.0061192 0.0101171 -0.0437319 -0.018276 0.0430792 0.00893403 -0.076694 0.00934198 0.0688614 -0.0147677 0.0150124 0.0793048 -0.0806103 -0.0796312 -0.0636397 0.00136662 -0.0313303 -0.0672296 -0.109003 -0.0819157 0.0381838 -0.0479745 -0.0239873 -0.131196 -0.0318198 0.0321462 -0.0175417 0.0998654 0.0571125 -0.0129727 0.0430792 -0.00942357 -0.0483009 0.0496063 0.0819157 0.0505854 0.00607841 0.0509118 -0.129238 -0.119447 -0.00111165 -0.0776731 -0.053849 0.00599682 -0.0362257 -0.0188471 0.0531963 0.0789785 0.053849 -0.0646188 0.0272508 -0.044711 0.0577653 -0.00509933 -0.0053441 -0.00542569 -0.0256191 0.0489536 -0.00344715 0.00106066 -0.0154204 -0.0230082 0.0293722 0.00701668 -0.0152572 0.00713907 -0.0427528 0.033778 -0.0236609 0.0269245 0.00966834 0.00868926 0.0212132 -0.0616815 -0.04569 0.0763676 -0.0620079 0.0122384 0.0959491 -0.0828948 -0.0907273 -0.0354098 0.00109636 -0.00999469 -0.0155836 -0.00373271 0.0789785 -0.014115 -0.0613552 0.0190103 -0.00897483 -0.0404683 -0.0783258 -0.062987 -0.00473218 -0.0193367 0.0252927 -0.073104 0.014115 0.040142 0.0249663 -0.0376943 0.0128911 -0.0206421 0.0124016 0.0698405 0.107698 -0.105087 0.0296985 0.0874638 -0.146861 -0.0793048 -0.0275772 -0.0512381 0.0407947 -0.0334516 -0.058418 -0.0311671 -0.00285563 0.0165626 -0.0177865 -0.033778 0.0174601 -0.0580916 0.0541753 0.0296985 -0.050259 -0.0208869 -0.0848529 0.0324726 0.114225 0.0275772 0.0257822 0.186676 -0.00239669 0.0616815 0.0257822 -0.0796312 -0.0239873 -0.0933382 -0.04569 -0.0479745 0.0616815 0.0385102 -0.0832211 -0.0188471 -0.142292 -0.0417737 -0.132501 -0.0545017 0.0779994 -0.0277404 0.0633133 -0.0711459 -0.0146861 0.0262718 -0.0760413 0.022845 0.0301881 -0.0257822 -0.0440582 0.0613552 -0.0393261 -0.0842002 -0.0181128 -0.0261086 -0.0750622 -0.142292 0.0146045 0.00771019 0.0132175 -0.00934198 0.016481 -0.00852609 0.0773467 -0.0760413 0.0453637 -0.0597234 -0.0773467 0.0701668 0.0254559 -0.0099539 -0.111614 -0.0868111 -0.0345939 -0.033778 -0.04569 0.0144413 -0.0574389 0.00860768 0.00624158 -0.067556 0.0300249 -0.0848529 -0.0037939 0.0894219 0.0499327 0.0489536 -0.0952964 0.029209 -0.000267715 -0.0404683 -0.0642924 0.00479337 0.0525435 0.0505854 0.053849
aide 0.0385599 -0.0465167 -0.0348876 -0.0431504 -0.0654907 0.0924214 0.000812895 0.010252 0.0223403 -0.107111 -0.0208101 -0.0520253 0.0133124 0.0156076 -0.0322863 0.0749776 0.048659 -0.0550856 0.0289199 -0.0474348 0.0284609 0.0347345 0.0899732 0.0151485 0.0365707 -0.0581459 -0.0526374 -0.000447092 -0.0679389 -0.0434564 0.0716113 -0.0160666 -0.0566158 0.0612062 0.0130828 -0.112619 0.0243295 0.121188 -0.00749776 -0.000712479 0.000401666 -0.129145 0.068245 0.00177881 0.00281166 -0.0483529 0.0413142 -0.0376418 -0.0155311 0.00814808 -0.0449866 -0.0173673 -0.0166787 0.048659 -0.0243295 0.0110936 -0.00372976 -0.0578399 0.0175968 -0.0163727 -0.0563097 0.0697751 -0.0566158 0.0948697 0.0264717 -0.0116292 -0.0609002 0.112007 0.0691631 0.000112371 -0.0176733 0.0270838 -0.0630424 -0.0206571 -0.0716113 0.0419263 -0.0178263 0.0706932 0.000741169 -0.0468228 0.137714 -0.0110936 -0.0954817 0.0575339 0.104663 0.0633485 0.00217091 -0.0046861 -0.0153016 -0.0362647 0.0740596 -0.0310622 -0.000903748 0.0743656 0.00726824 -0.0413142 0.0856887 0.0529434 -0.0208101 -0.0863008 -0.0581459 -0.0255536 -0.0838526 -0.0762018 0.0455986 -0.0342755 -0.0218812 -0.0422323 -0.0110171 0.01928 -0.0719173 0.0107876 -0.0250946 -0.0679389 -0.126085 -0.0333574 0.00156841 -0.0385599 0.0618183 0.0749776 -0.00692396 0.0440685 0.0304501 -0.039172 -0.00430356 -0.039019 0.0826284 -0.0471288 0.149343 0.0887491 -0.0110171 -0.106499 0.0238704 -0.0593701 -0.0697751 0.00791856 -0.0241765 0.0596761 -0.0578399 0.0706932 0.0172908 -0.0206571 -0.0344285 0.0667148 -0.00302206 -0.0209631 -0.0596761 -0.0642666 -0.0403961 -0.0313682 0.138326 0.0758957 0.0593701 -0.0264717 0.0263187 -0.1218 0.0172143 0.0422323 -0.0203511 0.00483912 -0.0304501 -0.0651846 0.134654 0.114456 -0.0633485 0.0280019 0.0113997 0.0532494 0.0942576 0.0572278 -0.00313682 0.121188 -0.0575339 -0.0795681 -0.0143835 0.0501891 -0.0612062 -0.00680919 0.0330514 0.0203511 -0.0875249 0.0936456 0.029073 -0.058758 0.0434564 0.029379 -0.0107876 0.0670208 -0.0112466 0.0832405 -0.00103764 0.0203511 0.107723 0.105275 0.0501891 0.0765078 -0.0547796 -0.0238704 0.0697751 0.0905852 -0.0633485 -0.00826284 0.0220342 -0.0737535 0.00963998 -0.0556977 -0.0175968 0.00784205 -0.0332044 -0.125473 0.0116292 -0.0768138 -0.0344285 -0.014766 0.107723 0.0477409 -0.00130063 0.0501891 0.0596761 0.0504951 -0.0232584 -0.0350406 0.0113232 0.0377949 0.0397841 -0.0312152 0.0535555 0.138938 0.0948697 0.0172908 0.0795681 -0.00631189 -0.0737535 -0.0410082 0.0223403 -0.0820164 -0.0511072 0.019892 -0.0407021 -0.134654 -0.00260127 0.0306031 -0.0327453 -0.0609002 -0.0276958 -0.0260127 -0.116292 -0.0477409 0.0749776 0.00302206 0.00332809 0.0126238 -0.0425383 0.00497301 0.0273898 0.0167552 -0.0762018 -0.0468228 -0.0201981 -0.10099 0.0280019 0.0188209 0.014613 -0.0462107 0.0327453 0.0700811 -0.0477409 0.0304501 -0.0376418 0.0621243 -0.019586 0.00791856 -0.0553916 -0.0247885 -0.0214222 -0.0264717 0.0991541 -0.0918094 0.0523313 -0.0627364 -0.0462107 -0.0703872 -0.0593701 0.105275 0.0477409 -0.0651846 -0.0642666 0.0261657 0.104663 0.0146895 -0.0286139 -0.0771199 -0.039172 -0.123637 -0.058452 -0.0208101 0.0365707 -0.0437625 -0.00288817 0.126085
alderman -0.0166636 -0.0404506 0.00616936 0.0106851 -0.112956 -0.0506269 0.0269671 0.0592767 -0.0338361 0.0468108 0.107868 0.0255679 -0.00432491 -0.124659 0.0305288 0.0424859 0.0931128 -0.00209885 -0.0216246 -0.108886 -0.0424859 -0.0256951 0.00915863 -0.0343449 -0.0157732 -0.087007 0.022515 0.12873 -0.0773396 -0.00588315 0.0572415 -0.00270307 -0.0768308 0.092604 0.0473196 -0.046302 0.101254 0.166891 -0.0379066 -0.0417227 0.047574 0.0518989 0.0778484 -0.0330728 -0.138397 0.0297656 -0.0176813 -0.0676721 -0.0854806 0.0211157 0.00810921 -0.00521533 -0.0992185 -0.126186 -0.0961657 0.0302744 -0.0195893 0.00737779 -0.000463099 -0.0371433 0.0277303 0.0236598 -0.117536 0.0758131 0.0111939 0.0445211 -0.0468108 0.0987097 0.0245502 0.0373978 0.0133563 0.0230238 0.0107487 -0.0079184 -0.0335817 0.0246774 0.00998546 -0.0478284 -0.00712338 -0.0727603 -0.0646193 -0.0722514 -0.0118299 -0.0274759 0.0340905 0.0356169 -0.0936216 0.061312 0.0910775 0.0541886 -0.0039592 -0.023151 -0.0681809 0.0620752 -0.0697074 0.00119253 0.0019637 -0.00747319 0.0368889 0.0162184 -0.0478284 -0.0506269 0.0164092 -0.0742867 -0.047574 -0.0628384 -0.0251862 0.0283663 0.0133563 -0.0485916 -0.038161 -0.00302108 0.0890423 -0.0267127 -0.0160276 -0.106851 -0.0321824 -0.0189533 0.0358713 0.00416591 -0.00680537 0.000806946 -0.110412 -0.0712338 -0.0483372 -0.0452844 0.0524077 0.00144694 0.0966745 -0.0273487 0.0516445 -0.140432 0.0666545 -0.0737779 -0.0345993 0.0335817 -0.00674177 -0.0221334 0.0834453 0.0691986 0.00960385 0.0610576 -0.0302744 0.00966745 -0.0440123 0.0503725 -0.0753043 -0.0147556 -0.0208613 -0.0429947 0.0131655 -0.0737779 -0.00125613 0.046302 0.0702162 0.0440123 0.0890423 0.0206069 0.0849718 -0.030656 -0.0211157 0.0389242 0.0686898 0.0384154 -0.0180629 -0.0146284 -0.0039751 0.0414683 0.100745 0.0849718 -0.0116391 0.0320552 -0.0305288 -0.0124023 -0.0166636 -0.0160912 -0.0691986 0.0343449 0.00230556 0.0290023 -0.0127203 0.0539342 0.015646 -0.104307 -0.0127203 -0.0773396 -0.0536798 0.0526621 0.0468108 -0.000349809 0.0202253 0.0314192 -0.0803925 0.0651281 0.0849718 0.00225786 -0.00852262 -0.00489733 -0.0150736 0.0161548 -0.15875 0.00718698 0.061312 -0.0648737 -0.0230238 -0.00760039 0.0246774 -0.111939 0.0384154 0.00858622 -0.007664 0.113974 -0.0076322 0.0473196 -0.00244866 -0.0330728 -0.0661457 -0.0314192 0.0195893 -0.0712338 -0.0171724 0.0582591 0.0251862 -0.0636016 0.0671633 0.0608032 0.0829365 0.0442667 0.0181901 -0.0108759 0.0116391 0.0146284 -0.0722514 0.0496093 -0.0661457 0.0019637 0.131274 -0.131274 -0.0330728 -0.0389242 0.110921 -0.144503 -0.0249318 -0.0976921 -0.105324 0.055715 -0.133309 -0.0203525 0.0379066 -0.0636016 -0.119062 0.0432491 -0.0260767 0.0885335 -0.00166159 0.0157732 0.0363801 -0.00632836 -0.0681809 -0.0217518 -0.0363801 -0.0473196 -0.0521533 -0.00845902 -0.0166636 -0.0676721 0.00263947 0.0437579 -0.131274 -0.0167908 -0.100236 -0.0829365 0.0265855 -0.0040546 -0.0562238 -0.0732691 0.0409594 -0.0125295 -0.0039751 -0.0549518 0.0376522 -0.0270943 0.0440123 0.0404506 -0.0628384 0.0567327 -0.0389242 0.00896783 0.0401962 0.00550154 -0.0493549 -0.0605487 -0.0859894 -0.0208613 0.0518989 0.0018047 -0.092604 -0.108377 0.0226422 -0.0600399
alter_ego 0.081466 -0.0330752 -0.0586555 0.0241139 -0.0105091 0.117963 -0.0332381 -0.0154785 0.0544193 -0.0570262 0.0997143 -0.0255803 0.093197 -0.0553968 -0.0971074 0.106883 -0.00700607 0.0681055 0.0210182 0.0281872 -0.0338898 -0.000481158 0.0671279 0.0918936 -0.0547451 -0.0668021 -0.017841 0.0654986 0.0223217 0.0232993 0.00578408 -0.0918936 0.0505089 0.0687573 0.033401 0.0361709 0.0925453 0.0276984 0.0395925 0.0720159 0.0296536 -0.0115682 0.0492054 0.0176781 0.0664762 -0.0817918 -0.0138492 -0.00688387 0.0518123 0.00417513 -0.14729 0.0482278 0.0139307 -0.0185742 0.0252544 0.0273726 -0.0397554 -0.138818 0.0206109 -0.0280243 0.043014 0.0150712 -0.0392666 0.108839 -0.0153971 0.0775556 -0.0246027 0.0316088 -0.00582482 0.0103462 0.0821177 0.0156415 0.0103869 0.0316088 -0.0167005 0.00549895 0.0415476 0.0200406 -0.0801625 -0.0570262 0.0129531 0.0632176 -0.0560486 -0.126435 -0.0105906 0.0840729 0.00696534 0.10949 0.0534417 -0.00806513 -0.00623214 -0.16228 -0.145335 -0.0164561 0.043014 0.0182484 0.00590628 -0.00757633 -0.035845 -0.108187 0.081466 0.0402442 0.0304683 -0.057352 0.0296536 -0.0720159 0.0364967 0.0386149 -0.0216699 0.0560486 0.00503052 -0.0482278 0.100366 0.0415476 -0.0495313 -0.0723418 -0.125132 -0.00210793 0.0596331 0.0125458 0.0746228 -0.0123014 -0.0443175 0.0197148 0.0276984 -0.0576779 -0.0337269 0.0984109 -0.0210182 -0.0553968 -0.081466 -0.00851319 -0.0553968 0.0668021 0.0116496 0.019226 -0.00839099 -0.0255803 0.0294907 -0.00896125 0.114052 0.0492054 -0.033401 0.0173522 0.0443175 0.0625658 -0.0752745 0.0990626 -0.00501016 0.0817918 5.0598e-05 -0.0109979 0.0173522 0.0899384 -0.116659 -0.0174337 -0.0259062 -0.0153156 -0.00254581 -0.0544193 0.0260691 0.0964557 0.088635 0.0298165 -0.088635 -0.0252544 0.0391037 0.114704 0.0153156 0.12839 0.174663 0.0412218 0.0687573 0.0114867 -0.0534417 0.0319347 -0.00818733 -0.0938488 -0.0138492 -0.0021894 0.0648469 -0.0508348 0.0141751 -0.0586555 -0.0104276 -0.0997143 -0.0619141 0.0397554 0.0415476 0.0563744 0.0397554 0.0371485 0.0511606 0.0187372 0.0161303 0.0353562 -0.0567003 -0.00643581 0.0179225 0.0977591 0.0162932 0.0307941 0.035845 0.0148268 0.18118 -0.0369855 0.00578408 0.00303461 -0.0586555 0.0117311 -0.102321 0.0197148 0.0615883 0.00474539 -0.0654986 -0.0171078 -0.0720159 0.0037067 -0.0827694 -0.0107535 -0.0221587 0.0518123 0.0791849 0.0360079 0.00529529 0.117311 -0.0628917 0.0368226 -0.033564 -0.0200406 0.0485537 0.0472502 -0.0752745 -0.0389407 0.0873315 0.0537675 0.0152341 -0.00162932 0.0443175 0.0032179 0.0219958 -0.0338898 -0.017841 -0.0250915 0.125783 0.0736452 0.0984109 0.033564 0.0918936 -0.0824435 0.00932785 0.0410588 0.06224 0.0697349 0.0250915 -0.0122199 -0.0661504 0.00223013 -0.028676 0.00513235 -0.0109979 -0.028676 0.0080244 0.0700607 0.00582482 0.0990626 -0.0456209 0.0847246 -0.0521382 0.00961298 3.75507e-05 -0.00659874 0.0216699 0.0338898 -0.0439916 -0.00301424 -0.0615883 0.0534417 -0.0353562 0.0465985 -0.0208553 0.0117311 -0.00120671 -0.00867612 0.103625 -0.0127087 -0.0327493 -0.0912419 0.0945005 0.0306312 -0.0232993 0.0508348 -0.102321 -0.0746228 -0.057352 0.0161303 0.0866798 -0.00839099 -0.0172708 0.0252544
ambassador 0.0234206 0.0018174 0.0952612 -0.0536831 -0.0365782 -0.000275488 0.0177628 -0.144208 0.0647355 -0.0224995 0.0315783 -0.113682 0.0436833 -0.0117103 0.0181575 0.0381571 0.0115129 0.0589461 -0.027631 -0.0159865 0.0526305 0.123682 0.036315 -0.0202627 0.119998 -0.0360519 -0.0109866 0.00156247 -0.0132892 0.00723669 0.00881561 -0.043157 -0.0555252 0.161049 0.039736 -0.0339467 0.114208 0.100524 -0.0889455 -0.0288152 0.0186838 -0.0157891 0.0311836 0.0857877 -0.0381571 0.0261837 -0.0373676 0.0264468 -0.0213153 0.0581567 0.0589461 0.0542094 -0.0757879 -0.000826463 0.0455254 -0.108945 -0.0613145 -0.0510516 0.0318414 -0.00799326 0.0568409 0.0513147 -0.00697354 -0.0247363 0.0426307 0.0773668 0.0471043 0.02671 0.086314 -0.0836825 0.0602619 -0.0261837 0.0222364 -0.0104603 -0.16526 0.0299994 -0.0557883 0.148418 0.115787 -0.0176312 0.079472 -0.00044407 0.0211838 0.0324993 -0.0148023 0.00618408 -0.0731564 -0.0852614 0.0349993 0.11105 -0.0114471 -0.0457885 -0.081051 -0.0243416 0.062104 -0.0494727 -0.00648013 0.0227627 0.0109866 0.0376308 0.0165128 0.0665776 -0.0460517 0.0101972 0.0468411 0.0121708 -0.14526 -0.0905244 0.022368 0.0147365 -0.107893 0.00782879 -0.0322362 0.015526 -0.0226311 -0.0542094 0.0505253 0.0139471 0.114208 0.0405255 0.0244732 -0.0726301 -0.0699986 0.0452622 0.00124175 0.0544726 -0.0428938 0.0146707 0.0436833 0.0277626 -0.0151313 -0.00713801 -0.0486832 -0.0449991 -0.0360519 -0.0219732 0.0174996 -0.036315 -0.0313151 0.0243416 -0.0497358 0.0915771 0.0355256 -0.0847351 0.0405255 0.0402623 0.0103945 0.0323678 -0.0836825 0.0123024 0.0968401 0.0352624 0.0292099 -0.037894 -0.0240784 -0.0117761 0.0146707 0.0307888 -0.018947 -0.0181575 -0.0644723 -0.0436833 0.14105 0.0149339 0.0784194 0.0109208 0.0234206 0.037894 0.0373676 0.104208 0.0805247 0.146313 -0.00621698 0.0402623 -0.0492095 0.0489464 -0.00999979 0.0481569 0.0831562 0.0444728 -0.105787 -0.04842 0.0011184 -0.0473674 -0.0497358 0.0736827 0.0360519 -0.0357887 0.00868403 0.0423675 -0.0994716 0.0294731 -0.00291112 0.11105 0.102103 0.0671039 0.0226311 0.0457885 0.0752616 -0.037894 -0.0120392 0.00694065 0.0194733 0.018947 0.0642092 -0.0784194 -0.0235521 -0.0140129 -0.0468411 0.0171049 0.0314467 0.0294731 -0.0248679 -0.0297362 0.0847351 0.0668407 -0.0657881 -0.0277626 -0.0140787 -0.0821036 0.0298678 -0.0497358 -0.0246048 0.128418 0.0352624 0.0151313 0.0799983 0.0169733 0.11105 -0.0460517 -0.0731564 0.00986822 -0.079472 0.0298678 0.146313 -0.121576 0.0272363 -0.0222364 -0.0318414 -0.093156 -0.016776 -0.0428938 -0.0507884 0.0513147 0.0384203 0.0159865 -0.108945 -0.0126971 0.0889455 -0.0214469 0.0355256 -0.0173681 -0.0423675 0.0557883 0.0631566 0.102103 -0.0289468 -0.0210522 -0.0699986 -0.135787 0.062104 0.0253942 0.0678933 0.030131 0.0752616 -0.0926297 -0.004967 0.0106577 0.0172365 0.0657881 -0.0694722 0.0322362 0.0203943 -0.0721038 0.0259205 -0.0235521 -0.0077301 -0.0181575 -0.0203943 0.0260521 -0.0044078 -0.0263152 0.0436833 -0.0154602 0.0178944 0.0244732 -0.0476306 0.0331572 0.138944 0.0318414 0.0246048 -0.0305257 -0.0549989 -0.0515779 0.011184 0.00437491 0.0044078 0.0826299 0.0899981 -1.09861e-05
analyst 0.0317551 -0.0187702 -0.0094494 0.0637674 -0.0786807 0.0930798 0.0581106 -0.0267411 0.0354834 -0.0227557 -0.100279 -0.036512 0.0755952 -0.0308552 -0.167646 0.091537 0.0606818 0.00813162 0.017356 -0.0683956 0.0413974 -0.0521967 0.00906371 -0.0210844 0.170732 -0.0304695 -0.00134188 -0.0317551 -0.097708 0.0212129 0.0174846 0.0817662 -0.0431972 0.0352263 0.101308 0.0026034 -0.0560536 0.0987365 -0.00613889 -0.0232699 -0.00501397 -0.109022 0.0503968 0.0143991 -0.02237 -0.0349692 -0.0745667 -0.0714811 -0.0122135 -0.00848517 0.0501397 0.0134349 -0.0879372 0.0637674 -0.0388261 -0.0848517 0.042683 0.00594605 -0.0219843 -0.106965 -0.0910227 0.00835661 -0.0640245 0.085366 0.00996365 0.112107 0.0352263 0.0498825 0.0429401 0.0280268 -0.0370262 0.0199273 0.0272554 0.00379261 -0.116221 0.0555393 -0.0282839 0.0452542 0.00658886 0.0287982 0.0858802 0.097708 -0.141934 0.0709669 -0.0339407 0.0205701 0.0165847 0.0125992 -0.0797092 0.00150258 0.0899942 -0.0683956 -0.0516824 0.104908 0.0224986 -0.0165847 0.0822804 0.0357406 0.0987365 -0.0547679 0.0227557 0.0287982 0.0429401 -0.0125349 -0.00421045 0.0255841 -0.0730239 -0.0375405 -0.048854 -0.0485969 -0.0838232 -0.109022 -0.00970652 0.0164561 -0.0475684 0.0352263 -0.0786807 0.0663386 0.170732 0.0372833 0.0493683 0.10645 -0.0817662 -0.0370262 0.0114421 -0.140905 0.0478255 0.00533537 -0.00145437 0.11725 -0.029441 -0.0236556 0.00205701 0.0614532 -0.020313 0.0179988 0.0601676 0.029441 -0.177931 0.0162632 0.0673671 0.042683 0.0111207 0.0719954 0.0555393 0.018256 0.017356 -0.0573392 -0.0160704 0.0168418 0.0040176 0.0563107 -0.00409795 0.0177417 -0.0240413 -0.0455114 0.0145919 0.0312409 -0.0491111 -0.0498825 -0.0570821 0.00726382 0.0421687 0.0941083 0.0403688 0.12702 0.0302124 -0.0047247 0.13782 0.083309 -0.00469256 -0.0719954 0.0347121 -0.002282 0.0575963 0.030598 0.0359977 -0.0176132 0.0557964 0.0149133 -0.0704526 -0.0303409 0.0730239 0.0689099 -0.0170989 -0.10645 0.0323979 -0.0291838 -0.0542537 0.0588819 0.0352263 -0.0581106 -0.0437115 -0.0298267 -0.0434544 0.0104136 -0.0791949 0.0663386 0.0750809 -0.0154276 -0.0640245 0.00108475 0.0170989 0.0555393 -0.0081959 0.0413974 -0.0848517 0.0709669 -0.013242 -0.024427 -0.0020088 -0.0156847 -0.028541 0.0858802 -0.0188988 0.0539965 0.0349692 -0.0586248 0.0668529 -0.0311123 -0.0206987 0.0302124 -0.0344549 -0.0242984 -0.0807377 0.0485969 -0.000135594 -0.0138205 -0.0226271 -0.000924048 0.0485969 0.0031498 -0.0200559 0.0125349 -0.0215986 -0.0228842 0.00343907 -0.0357406 -0.0599105 -0.000626746 0.0295695 -0.0658244 -0.116735 -0.0460256 0.042683 0.0287982 -0.0725096 -0.0485969 0.0303409 -0.00400153 -0.0375405 -0.00103654 -0.0416545 0.00957796 0.0920513 -0.0542537 -0.0503968 -0.0275125 -0.0506539 -0.0367691 -0.00700669 -0.0614532 0.170732 -0.018256 0.00294088 0.0817662 -0.050911 -0.0822804 0.0444829 0.114164 0.0124063 -0.0786807 -0.0300838 -0.0416545 -0.11725 0.0485969 0.0131134 0.0124706 0.123421 -0.0121492 -0.0266126 -0.00777807 -0.0624817 -0.0245556 -0.0160061 0.0317551 0.0668529 0.0689099 -0.00996365 0.00597819 0.0424259 -0.0424259 0.024427 -0.000371628 0.0884515 -0.0483398 0.0293124 0.0272554 0.048854 -0.00636388
anthropologist 0.0558205 -0.0236997 -0.0148574 0.0575048 0.0536551 0.119822 0.0466775 -0.101054 0.00926332 -0.0832496 0.0851744 -0.0760314 0.0129326 0.0483617 -0.0263463 0.0483617 -0.00667681 0.0255042 0.113085 -0.00580461 -0.0197297 -0.0430684 0.0306772 -0.0904677 0.0130529 -0.0406624 -0.105867 -0.0292336 -0.0478805 -0.0300757 0.0293539 0.0630387 -0.0332036 -0.0205718 0.0327224 -0.0673696 0.00908287 0.110679 -0.0575048 0.0358503 0.00451136 0.00848135 0.00279704 0.119822 0.0128724 -0.0702569 -0.0846932 -0.0611138 0.0425872 0.0324818 0.00649635 0.0117295 -0.13089 -0.114047 -0.0981671 0.0206921 0.011128 -0.0765126 -0.022256 -0.117897 0.0174439 -0.027429 0.000857158 0.0996108 -0.0459557 -0.0478805 0.000251884 0.0813247 -0.012331 -0.100573 -0.0134739 -0.0050828 -0.0803623 -0.0264666 -0.00956408 0.00938362 -0.065926 0.0161206 -0.0209327 -0.032963 0.0986483 0.124153 -0.00962423 -0.00110528 -0.0688132 -0.00550386 0.0454745 0.0380157 -0.0697757 0.0895053 -0.0536551 0.00200004 -0.0986483 0.0599108 0.0928738 0.0726629 0.0856556 0.0173236 0.0344066 -0.0861368 -0.00112784 -0.0904677 0.0166018 0.0173236 0.129927 -0.0769938 -0.0469181 -0.00493242 -0.0106468 -0.0232185 -0.0179251 -0.0435496 0.0962423 0.00896256 -0.0649635 0.0251433 -0.0502866 0.0281509 0.102979 -0.00294742 0.0548581 0.0123912 0.00908287 0.0240606 -0.0938362 0.0498054 -0.0286321 0.0387375 -0.0324818 0.100573 -0.00383465 -0.12319 -0.0413842 0.0601514 -0.0322412 0.0692944 -0.0292336 0.0226169 -0.100092 0.0270681 0.0173236 0.0765126 0.00655651 0.0112483 0.00541363 0.0312787 0.0162409 0.0779563 0.0110679 -0.040903 0.0813247 -0.0404218 -0.0368127 0.0224966 0.0406624 0.00992499 -0.0358503 0.0890241 0.0765126 -0.106829 -0.035369 -0.0469181 0.0837308 0.0399405 0.0952799 0.121265 0.105385 -0.125115 -0.00974453 -0.00902271 0.0861368 0.104423 -0.0125115 0.128002 0.105385 0.0265869 0.00800014 0.0356096 0.128002 0.0717005 -0.0464369 -0.0803623 0.0404218 -0.057986 -0.0153988 -0.0037745 -0.0517302 -0.0543769 -0.0404218 0.0498054 0.00252636 -0.00153386 0.0589484 -0.00793999 -0.0221357 -0.0389781 0.0991296 0.00356397 -0.0162409 0.0606326 0.00245117 0.077475 -0.0404218 0.0351284 0.0037745 0.0476399 0.0615951 0.0630387 0.0275494 -0.0563017 -0.0789187 -0.043309 0.0303163 -0.0382563 -0.012692 0.0129927 -0.017083 0.00481211 0.0615951 -0.0613545 -0.00824075 -0.0196094 -0.0346472 0.00751893 0.0205718 -0.0536551 0.124153 0.0223763 -0.0244215 0.0396999 0.0519708 -0.0505272 -0.164574 -0.0336848 0.0310381 0.0134739 0.0789187 0.0555799 -0.0428278 0.0464369 0.0692944 -0.150138 -0.0334442 0.048843 0.0224966 0.0572642 -0.0630387 0.0273087 0.0166018 -0.0423466 -0.059189 -0.0493242 -0.00264666 0.0755502 0.0435496 -0.0957611 -0.0033384 -0.0760314 -0.0575048 -0.027429 0.0232185 -0.0649635 0.0382563 -0.0257448 -0.0384969 0.0297148 -0.0394593 -0.0697757 -0.00628582 0.0401812 -0.0252636 -0.000815804 -0.0452339 0.0495648 0.0435496 0.0175642 -0.0236997 -0.00682719 0.00812044 -0.0344066 0.0837308 -0.077475 0.00721817 -0.027429 0.0163612 -0.0365721 -0.0370533 0.0846932 0.0351284 0.0428278 -0.0560611 -0.075069 -0.0538957 0.0594296 -0.0147973 0.0692944 -0.00216545 -0.0392187 0.104423 -0.0132333
archaeologist 0.0640477 -0.0161288 -0.0266476 -0.0245438 0.0705927 0.0687227 0.0406726 -0.0850853 0.0476851 -0.0162457 0.0553989 -0.0995778 -0.0715277 -0.0184663 -0.0171807 0.0451139 -0.0341276 -0.0220894 0.014551 -0.00800596 -0.0341276 0.00249821 -0.0119797 0.028167 0.0374001 -0.00905784 -0.0626452 -0.00394454 -0.0663852 -0.0659177 0.00952534 0.120615 -0.0208038 0.0502564 0.0579702 -0.161755 0.0467501 0.135575 -0.00368157 0.0607752 0.0626452 -0.0715277 0.0621777 0.0250113 0.00188461 -0.100513 -0.0724627 0.0269982 0.0682552 -0.00243977 0.00280501 0.0364651 -0.0911628 -0.0374001 -0.0621777 -0.0233751 0.0253619 -0.0575027 -0.0780727 -0.0673202 -0.0301538 -0.0212713 -0.0197519 0.0317901 -0.141185 -0.0080644 0.01683 0.00452892 0.0677877 -0.10098 -0.0303876 -0.0338938 -0.0981753 -0.0841502 -0.0598402 0.0350626 -0.0105188 -0.00625283 -0.0324913 -0.0804102 0.0476851 0.0455814 -0.0134991 -0.0336601 -0.012155 0.0366989 0.0645152 -0.0274657 -0.0467501 0.0645152 0.0109863 -0.107525 -0.0757352 0.107058 0.0465164 -0.0169469 0.0579702 0.0621777 0.0184663 -0.00338938 -0.00765533 -0.00794752 0.0631127 0.000865608 0.0654502 -0.00479189 -0.0902278 0.0579702 -0.0392701 -0.0539964 0.0451139 -0.00213298 0.0269982 0.0331926 -0.0488539 -0.0392701 0.0111616 0.00642814 0.0603077 0.0378676 0.0402051 0.00429517 0.0413739 0.0640477 0.00197227 -0.00905784 0.0183494 -0.0906953 -0.0556327 0.0462826 -0.0423089 -0.0612427 -0.0808777 0.0659177 -0.0285176 0.0224401 -0.0474514 0.0146679 -0.0991103 0.105188 0.00366696 0.0659177 -0.0525939 -0.000255665 0.0225569 -0.00224985 -0.0133822 0.0458151 -0.0123303 -0.0292188 0.0514251 -0.0467501 -0.0385689 0.0766702 -0.00841502 0.0617102 0.0247776 0.0776052 0.0211544 -0.0177651 0.0226738 -0.0169469 0.11594 -0.00143903 0.111265 0.11033 0.122485 -0.0663852 -0.00970065 0.00270274 0.113135 0.114538 0.0324913 0.0404389 0.114538 -0.0357639 -0.0724627 0.0366989 0.0748002 0.00467501 -0.0687227 -0.0640477 0.0169469 -0.0245438 -0.029102 -0.00487955 0.000460197 -0.0832152 0.0261801 0.0490876 -0.0451139 0.0385689 0.0444126 0.0507239 -0.0404389 -0.0350626 0.108928 0.0495551 -0.00088387 0.0286345 0.00308259 0.0241932 -0.0832152 0.0100513 -0.0397376 0.0752677 0.0434776 -0.0418414 0.0378676 -0.0202194 0.0612427 -0.0390364 0.0293357 -0.0691902 0.0211544 0.129965 -0.0293357 -0.0892928 0.0705927 -0.0301538 0.0299201 -0.0878903 0.0015559 0.0626452 -0.0177651 -0.0888253 0.00461658 0.0177651 -0.0402051 0.00981753 0.0748002 -0.0822802 -0.179521 0.00458736 0.0748002 -0.0425426 0.14212 0.0120382 0.0724627 0.0640477 0.0981753 -0.167365 -0.0110447 -0.0122135 0.00818127 3.94911e-05 -0.0156613 0.00911628 -0.0251282 0.0175313 -0.0218557 -0.0878903 -0.0174144 0.0420751 0.0888253 -0.0432439 -0.0215051 -0.185131 -0.0822802 -0.0981753 -0.00441204 -0.0565677 0.0322576 0.0199857 -0.0710602 0.0271151 -0.0222063 -0.0378676 0.0248944 0.0129147 -0.0129147 -0.0649827 -0.0556327 0.0883578 0.0507239 0.0219726 0.0348288 -0.0313226 0.0591389 -0.0701252 0.0504901 0.0174144 0.0299201 -0.00151938 0.0516589 -0.0341276 -0.0640477 -0.0205701 0.0586714 0.0397376 -0.0194013 -0.0327251 -0.0530614 0.0724627 0.0074508 0.10846 -0.0276995 0.0035647 0.117343 0.0645152
archbishop 0.0801834 0.0320259 0.0228926 0.0232484 -0.0269255 -0.0877747 -0.0469713 -0.0329748 0.0626284 0.104855 -0.00462596 -0.0247904 0.0239601 0.0208761 0.062154 -0.053851 0.0545627 0.0141151 0.000919262 -0.0300095 0.106279 0.0271627 0.0529021 -0.0486319 0.135695 -0.0977383 0.0140558 0.0412778 0.023367 -0.0754388 0.0488692 -0.0154199 0.0543254 0.0948916 -0.0186225 -0.0479202 0.0782855 0.156571 -0.0151827 0.120512 0.036296 -0.00345465 0.0891981 0.0635774 -0.0493436 -0.0103788 0.0479202 0.0105567 -0.117191 0.0868258 0.0934682 -0.0246718 -0.025858 -0.03938 -0.073541 -0.0483947 -0.138542 -0.0578839 0.0526648 0.0206389 0.0557488 0.0763877 0.024316 0.0285861 0.0844535 -0.00581211 -0.0763877 0.0336865 0.0996361 0.01969 0.0204017 0.116717 -0.0533765 0.0581211 0.00379566 -0.0246718 -0.0208761 0.0294164 0.00954846 -0.0113277 0.0265696 0.0332121 0.0180294 0.0292978 -0.0325004 -0.0104974 0.0119208 0.00788786 0.100585 0.0410406 -0.0260952 -0.0136407 -0.0317887 0.0120394 0.00513008 0.062154 -0.0259766 -0.0486319 0.0659496 -0.113395 -0.0607306 0.0491064 -0.0162502 -0.0287047 0.0153013 -0.0512414 -0.0253835 0.00349913 0.0571722 -0.053851 -0.0199272 0.0372449 -0.00102305 -0.0320259 -0.025858 0.0255021 -0.000118614 -0.0327376 0.120987 0.151827 -0.010616 -0.0654752 -0.0996361 -0.0555116 -0.14044 -0.0550371 0.0183852 -0.0372449 -0.0148268 0.0545627 0.0472086 -0.0858769 0.00753202 -0.0486319 0.0533765 0.0195714 0.0448363 -0.0268069 0.0512414 0.0612051 -0.0205203 -0.00699825 -0.027993 0.0169619 -0.0336865 0.0441246 0.0915704 -0.0194528 -0.0773366 -0.0583583 0.121461 -0.0183852 -0.0593072 0.0377194 0.0251463 -0.0151233 0.0164874 0.0868258 0.0868258 0.0103788 0.0282302 0.0146489 0.0552743 -0.005308 -0.0176736 0.105804 0.0277558 -0.0137 0.0358216 0.0367705 -0.0635774 0.0574094 -0.0303653 -0.0201645 0.0147082 0.0896725 -0.12241 0.0230112 0.0381939 0.000897022 -0.090147 0.0434129 -0.0782855 -0.0854024 -0.0284675 -0.00948916 -0.0811323 -0.0493436 0.0273999 0.0155385 -0.0120987 -0.00220919 -0.0313142 0.062154 -0.0640518 0.050767 -0.0469713 0.0090147 0.0702198 -0.0697453 -0.0552743 0.0934682 -0.0768622 0.0275186 0.0782855 -0.0763877 0.115768 0.00462596 0.0887236 -0.0910959 -0.0906214 0.0517159 0.0351099 -0.116717 -0.0372449 -0.0157757 -0.139491 -0.0372449 0.0277558 -0.0339237 0.0179108 -0.0147675 -0.00510042 -0.00332121 0.0410406 0.0151827 0.00628657 -0.050767 0.047683 0.0464969 0.021232 -0.0081844 -0.0906214 0.0434129 0.0303653 -0.0811323 0.00256504 0.0168433 -0.00842163 -0.0612051 -0.0367705 -0.0929937 0.0300095 0.0132848 -0.0109718 0.036296 -0.15752 0.0493436 0.05907 0.00670172 -0.009845 0.0123952 0.0600189 0.0213506 0.044599 0.0111498 0.0493436 -0.00990431 -0.0140558 0.00459631 -0.0240787 0.104855 0.0607306 -0.0104974 0.0107939 -0.0400917 0.0220623 -0.0754388 -0.0434129 -0.0612051 -0.0174363 0.0441246 0.0306025 0.0816068 -0.000253909 -0.031077 0.053851 -0.0081844 0.0650007 0.0408034 0.0183852 -0.018148 0.115768 0.0730665 0.0730665 0.0982128 0.0664241 -0.0816068 -0.0151827 0.0654752 0.0545627 -0.0759133 -0.117191 0.0313142 0.0910959 0.128104 -0.0351099 -0.083979 0.0498181 -0.0296536
architect 0.0330437 0.0361464 0.0210983 -0.0477815 0.000775674 0.0868755 0.0499534 -0.0381632 0.0738442 0.00709742 -0.0246664 -0.0389389 0.00860999 -0.0778777 -0.0178405 0.00946323 0.027614 -0.0564691 -0.00651566 -0.00141561 -0.0555383 0.162581 0.0918398 0.00930809 0.070121 -0.0268383 0.0421967 0.00250155 -0.127831 -0.124728 0.058641 0.0434378 -0.0366118 0.0732237 0.0778777 -0.0732237 0.0685696 0.0766366 0.0874961 -0.0139621 -0.0168321 -0.00570121 0.0682594 0.0763264 -0.00148348 -0.0688799 -0.0589513 -0.0555383 0.0238908 0.0784983 -0.0128762 0.0484021 -0.0623642 -0.0831523 0.01148 0.00957958 0.0110921 -0.0850139 -0.00109079 -0.010937 0.0339745 -0.0228048 -0.0539869 -0.0431275 -0.0165994 -2.75728e-05 -0.0134967 0.0732237 -0.0452994 0.0778777 0.0180732 -0.00211371 0.0493329 -0.0930809 -0.0691902 0.0297859 0.0595718 0.0608129 -0.0769469 0.0490226 0.0474713 0.0206329 -0.121626 0.0251319 0.0868755 0.0330437 0.0750853 -0.0321129 -0.0176078 -0.078188 0.0319578 -0.0583307 -0.167546 0.070121 0.121005 0.0126435 -0.132795 -0.042507 -0.0210983 -0.0536767 -0.0392491 0.012023 0.0304064 0.0763264 -0.0235805 0.0155135 -0.00127986 0.0679491 -0.12659 0.0366118 -0.0400248 -0.0147378 -0.0812907 -0.0555383 0.0912193 -0.036767 -0.0386286 -0.0657772 0.152032 0.0370772 0.0345951 0.00296695 0.0573999 -0.0304064 0.00981228 -0.0403351 0.0127211 -0.0452994 0.0831523 0.0791188 0.0246664 -0.114179 -0.0580204 -0.0173751 -0.00837728 0.0203227 -0.0955631 0.114179 -0.00531337 0.105492 -0.0577102 0.0294756 -0.0698107 0.0305616 0.00589513 -0.01148 -0.000332086 0.0477815 -0.117282 0.0328886 0.00647688 -0.0234254 0.0484021 0.112318 0.00589513 0.0373875 -0.00934688 -0.000921113 0.0394043 -0.0421967 0.0265281 -0.0232702 0.0539869 -0.0204778 0.0311821 0.0710518 0.0729134 0.0198573 0.0304064 -0.0117127 -0.0197021 0.0843934 -0.0601923 -0.0601923 0.0788085 0.0203227 0.00837728 0.0741545 0.0152032 0.00585634 -0.047161 -0.0347502 -0.0231151 -0.0688799 0.0887372 -0.0238908 0.0812907 -0.00601148 0.0203227 -0.0106267 -0.00701985 0.0316475 0.0719826 0.0125659 -0.0370772 -0.0446788 0.0139621 0.107353 -0.0293205 0.0210983 -0.0757058 0.0899782 0.0449891 -0.0421967 0.0293205 0.043748 -0.0221843 -0.0719826 0.042507 -0.074775 -0.0285448 -0.0539869 0.0856345 -0.00748526 -0.0381632 0.0353708 -0.0949425 -0.024201 -0.0186938 0.113559 0.0459199 -0.0825318 -0.00558486 0.0468507 -0.00366506 0.0477815 -0.00231733 0.111077 -0.0676388 -0.0221843 -0.0352156 -0.062054 -0.151412 -0.0383183 -0.0266832 -0.0598821 0.134037 -0.0294756 -0.00376202 -0.0521253 -0.0530561 -0.0955631 -0.0352156 -0.031027 0.0347502 -0.0806701 -0.0673285 -0.0384735 -0.0156686 -0.00126047 -0.0400248 0.0440583 -0.0273037 0.0493329 0.0234254 0.0757058 -0.0831523 -0.0154359 -0.100527 -0.0302513 -0.0318027 0.0268383 0.0369221 -0.121005 0.036767 0.0636053 -0.0145051 -0.0304064 -0.0406453 -0.000916265 -0.0468507 -0.111697 0.00438256 0.00802823 -0.0440583 0.01722 -0.0338194 0.0887372 0.00150287 -0.0831523 0.0102389 -0.00934688 -0.117282 0.0487124 -0.0095408 0.0378529 -0.0850139 -0.0316475 0.0819112 0.0583307 -0.094322 -0.0287 0.00021331 0.0165994 0.00892026 -0.0223394 -0.0246664 -0.0843934 0.0539869 0.0238908
artist 0.0513152 -0.0487654 -0.0675703 0.0315541 0.0471717 0.0994431 -0.00836661 -0.0196018 -0.001504 -0.0745823 0.0643831 -0.0662954 0.0446219 -0.0835067 -0.0815944 -0.00154384 0.0427095 -0.0193627 -0.0158567 -0.0358569 -0.0560961 0.135778 -0.0452594 -0.114105 -0.0745823 -0.0631081 0.0147412 0.0136256 0.00280879 -0.0481279 0.00936263 0.0554587 -0.108368 0.086694 0.0465343 -0.0513152 0.0815944 0.0513152 0.0207173 0.0513152 0.00581679 0.0729887 0.0337852 0.0898813 0.0344226 -0.0400004 0.012032 0.0141834 0.0557774 0.00713154 -0.0385661 0.0379286 -0.0497216 -0.0586459 -0.0618332 0.00569726 0.0103587 0.0403191 -0.00541838 -0.0873315 0.141515 -0.0361756 -0.0401597 -0.157452 -0.0392035 -0.0403191 0.010279 0.0211954 0.0137053 0.050359 0.00900407 0.00549806 -0.0634269 0.00976104 -0.103905 0.0624707 0.0100001 0.0583272 -0.00689249 -0.062152 -0.0672516 0.0070917 0.0423908 -0.00589647 0.0285262 0.0256576 -0.0583272 0.0704389 0.0430283 -0.0296417 -0.0110758 -0.0774509 -0.157452 -0.00617535 0.00529885 0.0159364 0.0643831 0.0358569 0.0860566 -0.10263 0.0126694 0.0113148 -0.0272512 -0.0898813 0.00215141 -0.00689249 0.0618332 -0.0666141 -0.0341039 -0.0962558 -0.0282074 -0.00876502 0.0414346 -0.0179284 -0.0101993 -0.00246018 -0.107093 -0.076176 0.0400004 -0.00392434 0.156814 0.00494028 0.0605583 0.00378489 0.00260959 0.0179284 -0.0723512 -0.00290839 -0.0023307 0.00772915 -0.0277293 0.0219922 0.0400004 0.0994431 -0.00697217 -0.0548212 -0.0860566 -0.0336258 0.0387255 0.00513949 0.0352194 0.123029 -0.124304 0.0768134 -0.0125101 0.0809569 0.135141 0.0443032 -0.122392 -0.0143428 0.0400004 0.0133866 0.0396816 0.130041 -0.0280481 0.0352194 0.0256576 -0.0302792 -0.0500403 -0.0296417 -0.0358569 0.0962558 0.0274106 0.144065 0.010518 0.0545025 0.0548212 -0.0886064 -0.0215141 -0.00697217 0.0313947 0.0624707 -0.0148209 -0.0156974 -0.0202392 0.0430283 0.0522714 0.00673313 0.0854191 0.0404785 0.0366537 -0.00280879 0.00784868 -0.076176 -0.014024 0.0215141 -0.00264943 0.036335 0.00968136 0.121117 -0.00589647 -0.0057371 0.114105 0.0101993 -0.0490841 -0.0886064 0.000866542 0.0790445 -0.039841 0.0109164 -0.0158567 -0.00513949 -0.0586459 0.00852597 -0.0129085 -0.0160958 -0.0104383 0.00900407 0.0320322 -0.0647018 -0.116017 -0.062152 0.01753 -0.0218329 -0.0118726 -0.0490841 -0.0427095 0.0198408 -0.0207173 -0.00880486 0.00565742 -0.00964152 -0.00980088 0.0506777 0.0596021 0.0678891 -0.0353788 0.022789 -0.0344226 -0.0535463 -0.0430283 -0.0286855 -0.22056 0.0352194 0.0290042 -0.0070917 0.135141 -0.0146615 -0.025817 -0.0116336 0.0481279 -0.164464 0.029323 -0.00386458 0.0302792 -0.0282074 -0.0589647 0.0631081 0.0326696 -0.0487654 0.01753 0.0427095 0.009522 0.0650205 0.0586459 0.0361756 -0.0218329 -0.00764947 0.0108368 -0.0207173 -0.0259763 0.00960168 0.0411159 -0.117292 0.00812756 0.14534 -0.00661361 0.0168926 -0.106455 -0.0701202 -0.0336258 -0.0100399 0.0199205 0.0777696 0.0406378 0.131953 -0.0736262 0.0522714 -0.0446219 0.0407972 0.00880486 0.0586459 0.0400004 0.0296417 0.0170519 -0.0356975 0.0105977 0.000851601 0.0994431 0.0478092 -0.0266138 -0.0318728 -0.0812756 -0.065658 -0.0353788 0.0364944 -0.0379286 -0.00328688 0.0427095 -0.107093
artiste 0.0540166 -0.0348748 -0.0237306 0.0419546 0.05087 0.0492967 0.0183552 -0.0348748 -0.029106 -0.0548033 0.0330393 -0.0739451 0.056901 0.0152741 -0.0445768 0.139499 0.0807627 -0.0487723 -0.0537544 -0.00924313 0.0200596 0.0334326 -0.000163885 -0.0985934 0.0318593 -0.00878425 0.0749939 -0.0923002 0.0760428 -0.0300238 -0.0369725 0.0126519 -0.0385458 0.0854826 -0.013963 -0.0802383 0.0970201 0.105411 0.062932 -0.00770261 -0.0218951 0.0584743 0.0422169 0.10174 0.026615 -0.108558 -0.105935 0.00391686 0.135304 -0.0671274 0.00976756 -0.0401191 0.00780094 0.000452733 0.0626697 0.035137 -0.00485101 -0.0149463 -0.0284505 -0.0527055 0.109607 -0.0671274 -0.0178307 -0.0637186 -0.0106198 0.0310727 0.0208462 0.0203218 0.106984 0.00491656 -0.0191418 0.0487723 -0.0138319 0.0451012 -0.124815 0.0173063 0.0137664 -0.00370381 -0.0377592 -0.012062 -0.062932 0.0274016 0.0215018 0.00317938 -0.0697496 0.0713229 0.0251728 0.044839 0.0490345 0.021764 -0.0221573 -0.0521811 -0.141597 -0.0592609 -0.0361859 0.00133567 0.0938735 0.0610964 0.0681763 -0.0833848 0.0401191 0.05323 0.00481823 -0.152086 -0.0270083 -0.0154708 0.0603098 -0.0844337 0.0230751 -0.0313349 -0.10174 -0.00247467 0.0234684 -0.026615 -0.00488378 0.0270083 -0.0406436 -0.124815 -0.0021469 -0.0230751 0.0839093 0.0229439 -0.0608342 0.0197973 -0.0230751 0.0540166 -0.142646 0.0226817 0.0176996 -0.0216329 -0.0163885 0.0527055 0.0506078 0.00583432 -0.0390703 -0.0443146 -0.035137 0.0409058 0.00260578 0.0251728 0.0277949 0.0519189 -0.0891536 0.107509 -0.0297616 0.0044249 0.103838 0.0728962 0.00258939 0.0608342 -0.0215018 -0.0232062 0.0241239 0.0218951 -0.0687007 -0.0513944 -0.0537544 -0.025435 0.000860398 -0.082336 -0.0170441 0.0173063 0.0558521 0.174112 -0.0437902 -0.0652919 -0.0123242 -0.0728962 0.00707985 -0.0340881 0.0414302 -0.0152086 0.0142252 -0.0283194 -0.125864 -0.0356614 0.11118 -0.0647675 0.0791894 -0.0776161 0.0718473 0.0377592 -0.0367103 -0.0933491 -0.0175685 0.0401191 -0.0495589 -0.0432657 -0.0131764 0.0755184 -0.0676519 -0.047199 0.0100298 0.0479856 0.0204529 0.00655541 0.00411352 0.116949 -0.0382836 0.0180929 0.0334326 -0.0655541 -0.0414302 -0.0443146 -0.0148152 -0.129535 0.0211084 -0.0382836 0.0540166 -0.0285816 -0.038808 -0.0281883 -0.00184371 -0.0707985 0.00327771 -0.00612931 -0.0262217 -0.0191418 -0.0377592 -0.016913 -0.0104231 0.020584 -0.0319904 0.0574254 0.0385458 0.0713229 0.000181298 -0.139499 0.016913 -0.0167163 -0.00175357 -0.0143564 -0.146841 -0.00042815 0.0692252 0.0225506 0.112753 -0.0414302 0.000536724 -0.00244189 0.0234684 -0.114326 0.0270083 -0.0416924 0.0195351 -0.113802 -0.0744695 -0.00839093 0.0875803 -0.0243861 0.0818116 0.0377592 0.00498211 0.0597854 0.0327771 0.0770917 -0.0687007 0.0176996 -0.0159952 -0.0923002 0.00288438 0.0255661 0.0797138 -0.0340881 0.0183552 0.0487723 -0.041168 0.0621453 -0.0634564 -0.0416924 -0.0461501 -0.0595232 -0.0112098 0.0996423 0.089678 0.0996423 -0.0296305 -0.0174374 -0.0353992 0.00135205 -0.10646 -0.0938735 -0.0167163 0.0241239 0.0331704 -0.0443146 -0.000749775 -0.0129142 0.0500834 0.0645053 -0.0361859 0.0138975 -0.0818116 -0.13373 -0.0676519 0.0891536 -0.0902025 -0.00917758 -0.0335637 0.0225506
assassin 0.110251 -0.0156917 0.0491219 0.0695894 0.0376601 0.105885 -0.0534883 -0.0238787 0.0384788 -0.0499406 0.0382059 -0.0856904 0.0671333 -0.0687707 -0.00281428 0.0562173 -0.089511 0.0586734 0.0856904 -0.0581276 0.037933 -0.0267441 0.00254138 -0.0149412 -0.0216955 -0.0742287 0.0704081 -0.0635856 -0.0122805 -0.00409349 0.0307012 -0.0731371 -0.00392293 0.15719 -0.0469387 0.00161181 -0.0172609 0.0676791 0.0173973 0.00948326 0.0960606 -0.155007 0.0271535 0.0347947 -0.0259255 -0.084053 -0.00968793 -0.057036 0.0987896 0.00637903 -0.0387517 0.0567631 -0.000993525 -0.0578547 -0.0233329 0.0100291 -0.0342489 -0.0586734 -0.0267441 0.0233329 -0.0267441 0.0698623 -0.0447555 0.0586734 0.0315199 0.0453013 0.0024561 -0.0013645 0.0140543 0.115164 0.00811876 0.037933 -0.0862362 -0.0586734 -0.13645 0.0742287 0.0971522 -0.0157599 0.0422994 0.00194441 0.0278357 0.0851446 -0.0674062 -0.0507593 0.00832343 0.0714997 -0.0758661 -0.00361592 0.132629 0.0474845 0.0171244 0.0403891 -0.0698623 0.0259255 0.0725913 -0.0135767 0.0403891 0.010302 0.0229236 0.00346241 -0.0540341 -0.0414807 0.0649501 -0.0775035 0.12608 -0.0769577 -0.0414807 0.0630398 -0.0126898 0.0548528 -0.00463929 -0.0442097 -0.0172609 0.0223778 -0.0534883 -0.0261983 -0.0263348 -0.0674062 0.0824156 0.0195123 0.00811876 -0.0474845 0.0619482 -0.116801 -0.0126898 -0.057036 0.0425723 0.028518 0.0354769 0.0076753 0.0529425 0.0398433 -0.031247 0.0796866 0.0173973 -0.0638585 -0.0960606 0.0199217 -0.0276993 0.0225142 0.0382059 -0.0341124 -0.0592192 0.0507593 0.0493948 -0.00422994 -0.105885 -0.00250726 0.00281428 0.0206039 0.0392975 -0.0304283 -0.0197852 -0.00620846 -0.0122805 -0.0731371 -0.122805 0.000245183 -4.47726e-05 -0.0690436 0.0341124 -0.0704081 0.0196488 -0.0107795 -0.12608 -0.0477574 0.0725913 0.0079482 0.0231965 0.0186936 0.0966064 -0.00400821 -0.0313834 -0.0775035 -0.0144637 0.0354769 -0.0447555 -0.0559444 0.051578 -0.0835072 -0.078595 -0.0742287 -0.00934681 -0.020331 -0.0137132 0.037933 0.0856904 0.00373531 0.0328844 -0.00354769 0.014259 0.0496677 0.0693165 0.0644043 0.0371143 -0.0444826 -0.0412078 -0.0731371 0.0165104 -0.014873 0.0135767 -0.0240152 -0.0157599 -0.0480303 0.0365685 -0.15719 -0.0578547 0.0215591 -0.00296778 -0.0758661 -0.128809 0.0173291 0.0529425 -0.0616753 -0.114072 0.105885 -0.0513051 -0.0343853 -0.11298 -0.0665875 -0.0403891 0.00832343 0.0769577 0.0357498 0.086782 0.0682249 0.0594921 0.00545799 -0.0215591 -0.117347 0.0807782 -0.0845988 -0.0276993 0.00235376 0.0884194 -0.0134403 -0.00429817 0.0603108 0.0140543 -0.0185572 -0.0126898 0.00202116 -0.0244245 0.0281086 0.057036 -0.00569678 -0.037933 -0.0428452 -0.0193759 0.0253797 -0.0644043 -0.0197852 -0.0401162 0.067952 -0.00289956 0.103702 0.0133038 -0.16374 -0.0134403 -0.0682249 -0.0556715 -0.0998812 -0.0578547 -0.0154188 0.0189665 0.0616753 -0.0966064 0.0253797 -0.0605837 0.00487808 -0.0276993 -0.0357498 -0.0704081 0.0261983 -0.0195123 -0.0128945 0.0856904 0.0199217 0.0189665 0.102064 -0.103156 -0.0641314 -0.0510322 -0.012144 0.0376601 -0.0510322 -0.132083 -0.0586734 0.00706127 -0.00351358 0.0298825 0.0331573 -0.127717 0.0082211 0.00927858 0.00996083 0.00460518 -0.0731371 -0.0117347 0.110251
assistant_professor 0.0304133 -0.0708915 -0.00555208 0.00492302 0.000458115 0.124279 0.153161 -0.12778 -0.0301945 -0.0695787 0.0621395 -0.0509806 -0.0187075 -0.0246151 -0.101961 0.0617019 0.0765804 0.0321638 0.0291005 -0.0730796 0.0230835 -0.0121982 0.0112683 -0.0958349 0.0435414 -0.0468234 -0.0993357 -0.0402594 -0.168914 -0.00343244 -0.0240681 0.038509 0.0122529 0.00847854 0.0730796 -0.0730796 0.0261467 0.0527311 -0.0207861 0.038509 0.00995545 -0.00213331 -0.0195827 0.0345706 -0.0167383 -0.0533875 -0.0918964 -0.00415722 0.0625771 0.0382902 -0.0700163 0.0529499 0.0391654 -0.0630147 0.0356646 -0.0540439 -0.0211143 -0.109401 0.0730796 -0.0743924 -0.0470422 -0.039603 -0.0125811 -0.00114187 0.0198015 -0.00929904 -0.0274595 0.0691411 -0.00116238 -0.0433226 -0.0315074 -0.00248886 0.0317262 -0.0140033 -0.079206 -0.0527311 -0.0949597 0.0280065 -0.0130734 0.0272407 0.0321638 0.101961 -0.0166289 0.0481362 -0.0181605 0.0149879 -0.0527311 0.0984605 -0.045073 0.115527 -0.0393842 -0.103274 -0.124279 0.0743924 0.0304133 0.0564507 0.0582011 0.0544815 -0.0110495 0.00629053 0.0621395 -0.0164101 -0.0660779 -0.0557943 0.0288817 0.000841017 -0.113777 -0.0248339 -0.0268031 0.00205126 -0.079206 -0.0551379 0.136532 -0.0310697 -0.0195827 -0.00908024 -0.041791 -0.00530593 0.116402 0.0757052 0.00291279 0.0531687 -0.0143315 0.0193639 -0.0586387 -0.00908024 0.0424474 -0.00443072 0.0286629 0.121653 0.0193639 -0.0621395 4.67944e-05 -0.00968195 -0.00571618 -0.0119247 0.117277 0.0233023 -0.0470422 -0.0198015 -0.0258185 0.0805188 -0.00315894 0.0308509 -0.0490114 0.0187075 -0.0167383 0.0400406 -0.00979135 -0.0278971 0.125154 -0.0367586 0.034133 0.00743924 0.00697428 -0.0752676 0.0293193 0.0433226 0.0800812 -0.0540439 -0.0424474 0.0259279 0.0212237 0.0848948 0.0787684 0.109838 0.0111589 -0.140033 0.0409158 0.0376338 -0.00154528 0.00555208 -0.0114324 0.136532 0.108088 0.047261 -0.0107213 -0.00225639 0.0250527 0.036321 -0.0224271 -0.0284441 0.153161 -0.0317262 -0.0435414 -0.0682659 -0.0625771 0.00571618 -0.0404782 0.0459482 0.0967101 -0.0485738 0.00754864 0.0722044 -0.031945 -0.0573259 0.0730796 -0.0420098 0.0215519 0.0444166 -0.0387278 0.013511 0.0656403 -0.0263655 -0.0551379 -0.0783308 0.112026 0.0332578 -0.101524 0.00296749 -0.0264749 0.0315074 -0.0118153 0.0159725 0.039603 0.0317262 -0.0312886 -0.110713 0.0564507 0.00190083 0.0263655 -0.0387278 -0.0540439 -0.0250527 -0.00180511 -0.0555755 0.0496678 -0.0509806 -0.0691411 -0.0190357 -0.0112136 0.081394 -0.168039 0.0169571 0.0118153 -0.0308509 0.0549191 -0.0123623 -0.0391654 0.0630147 -0.00210596 -0.0522935 -0.0612643 -0.0121435 0.0350082 0.0207861 -0.1059 0.040697 0.0608267 -0.013511 0.000864948 -0.0949597 -0.0717667 -0.00287176 0.0560131 -0.0831444 -0.0424474 0.0172853 -0.0190357 -0.0665155 -0.047261 -0.0435414 0.0936469 -0.0765804 -0.0503242 -0.0437602 0.0222083 -0.0713291 0.0511994 0.0638899 0.041791 -0.0560131 -0.0293193 0.0398218 -0.0446354 0.043979 -0.0115965 -0.00864264 0.0336954 -0.00645463 0.10765 -0.0470422 -0.0137298 -0.0155349 -0.0350082 0.000340167 0.0853324 0.0573259 0.123404 0.0131281 -0.119903 -0.0420098 0.0166289 0.0367586 0.081394 0.0102289 -0.0656403 -0.0441978 0.107213 0.0630147
associate_dean -0.0480456 -0.0723017 -0.00527686 -0.0366173 0.0269382 0.00769663 0.160463 -0.0552758 0.0200579 -0.073701 -0.00927094 -0.0184253 -0.0606401 -0.043381 -0.0970242 0.0298536 0.118948 -0.0124196 -0.0205243 -0.102622 0.00454801 0.0222736 0.0951583 -0.0368505 0.0478124 -0.0783657 -0.0426813 -0.0183086 -0.153 0.0450136 -0.0405822 -0.0111951 0.0117199 -0.0255388 0.0872285 -0.040349 0.000940213 0.0732346 -0.0510776 0.0326524 0.00553924 0.0129443 -0.0704358 -0.0116616 -0.0534099 -0.0965577 -0.0255388 0.025772 -0.00169821 0.0587743 -0.0951583 -0.0576081 -0.0277545 -0.0232065 0.061573 -0.0305533 -0.061573 -0.0834968 0.074634 -0.0174923 -0.102155 -0.0283376 0.0389496 0.0412819 0.0204077 -0.0198246 -0.00629724 0.0162096 -0.0173757 -0.0314862 -0.0667041 -0.0134691 0.0900272 0.0214573 -0.101689 -0.0457133 -0.165128 -0.0153933 -0.00408155 0.0321859 0.0620395 0.0951583 -0.0956248 0.00446055 0.0246059 0.0234397 -0.0559755 0.0681035 -0.00111514 0.0653047 0.0345182 -0.112417 -0.0391828 0.0292705 0.0408155 0.0384831 0.0171425 0.086762 -0.0657712 -0.074634 -0.0159763 0.00938755 -0.0639053 0.00428562 0.0180754 -0.0146936 -0.0998229 0.0205243 -0.00115158 -0.0517773 -0.100289 -0.0410487 0.116149 0.0127694 -0.00325066 -0.0438475 -0.0552758 0.0185419 0.176323 0.0384831 -0.043381 0.0244893 -0.000264207 0.0387164 -0.0830303 -0.0466462 0.0440807 0.0274047 0.092826 0.0923595 0.040349 -0.062506 -0.0307865 0.00182941 -0.0106703 0.00542262 0.101222 -0.0130609 0.00868786 -0.0121863 -0.0946919 0.0163262 0.0338185 0.0150434 -0.0170259 0.0918931 0.0769663 0.0979571 0.00763832 0.0260053 0.166061 0.0208742 -0.0704358 0.0534099 -0.0286874 -0.0478124 -0.00390662 -0.00437308 0.00291539 -0.0239062 -0.00326524 0.0180754 -0.00536432 0.0667041 0.0709023 0.0671706 -0.0247225 -0.061573 0.0527102 0.00266758 0.0492118 0.061573 -0.0643718 0.0704358 0.0370838 0.0862955 -0.00304658 -0.00322151 -0.00845463 0.0319527 -0.0263551 0.00781324 0.101689 -0.0918931 0.0134691 -0.0839632 -0.0699693 -0.00198246 0.0764998 0.0601736 0.0760334 -0.0492118 0.0501447 0.120347 -0.0592407 0.00991232 0.0278711 -0.0755669 0.0914266 0.0349847 -0.092826 -0.000976656 0.062506 -0.0244893 0.0158597 -0.0429145 0.0695029 -0.027288 -0.0290373 -0.0326524 0.0142854 -0.0199413 0.0326524 -0.0408155 0.0545761 0.0363841 -0.0998229 -0.0412819 0.0517773 -0.000262385 0.0515441 0.002653 -0.00629724 0.0307865 0.0345182 -0.00723017 0.067637 -0.0368505 -0.00281335 -0.00673455 -0.0452468 0.040349 -0.139939 0.0179588 -0.00118073 -0.00938755 0.00145041 -0.0394161 -0.0377834 0.0480456 0.0788321 -0.0156265 -0.0960912 -0.01137 -0.067637 -0.00626809 -0.152067 0.0405822 -0.017609 0.0243727 -0.0171425 0.0107286 -0.0639053 -0.0340517 0.0461798 -0.0391828 -0.0825638 0.0214573 -0.0578413 -0.0503779 -0.0375502 -0.0115449 0.0597072 -0.058541 -0.0489785 -0.0816309 0.02274 -0.0573749 -0.0269382 0.0480456 0.0113117 -0.0396493 0.00688032 0.0643718 -0.102155 -0.0208742 -0.00556839 -0.0333521 -0.0244893 -0.00507278 0.0487453 -0.0820974 0.0172591 -0.0164428 -0.018192 0.0932925 0.0769663 0.0457133 0.146469 0.00478124 -0.0606401 0.0147519 -0.101222 0.110085 0.108219 0.0167926 -0.0283376 0.0718352 0.127811 0.0363841
associate_professor 0.0412451 -0.0900704 0.0160521 0.00679987 0.00969817 0.0856115 0.131093 -0.132876 -0.00746871 -0.0477106 0.0588579 -0.0535072 -0.0129309 -0.0192849 -0.123066 0.0789231 0.0722347 0.0238553 0.0232979 -0.0454811 0.0261962 -0.013544 0.0138784 -0.0860574 0.0575202 -0.0731265 -0.0887327 -0.0220717 -0.188167 -0.0202881 -0.0139899 0.045704 0.00241061 0.0190619 0.10746 -0.0316584 0.0203996 0.0722347 -0.0343338 0.0530613 -0.0181701 -0.0128194 -0.0190619 0.0381239 -0.0570743 -0.028983 -0.0726806 -0.0169439 0.0628709 0.0151604 -0.0882868 0.0780313 0.016498 -0.0780313 0.0372321 -0.0601956 -0.0256388 -0.126634 0.0847197 -0.0637627 -0.0655463 -0.0704511 -0.00908507 0.0134883 0.0425828 -0.020734 -0.0271995 0.0686675 0.00710642 -0.0673298 -0.0365632 -0.00836049 0.0358944 -0.00969817 -0.0914081 -0.0691134 -0.112811 0.0579661 -0.00646545 0.0148259 0.0238553 0.0856115 0.0111473 0.0372321 -0.020734 0.0139899 -0.0642086 0.103447 -0.050163 0.101664 -0.0221832 -0.09988 -0.0945293 0.0758018 0.0245241 0.0606414 0.0713429 0.0642086 -0.00429172 -0.0131538 0.0637627 -0.0112588 -0.0579661 -0.0461499 0.0271995 0.0227405 -0.0940834 -0.0149374 -0.0250815 -0.0130981 -0.0535072 -0.0847197 0.148928 -0.0193963 -0.0241897 -0.00182537 -0.058412 0.012485 0.136443 0.0713429 -0.0135997 0.0691134 0.0187275 0.0168325 -0.0726806 -0.0128194 0.0282027 -0.0363403 0.0383468 0.141794 0.0428057 -0.0829361 0.0124293 0.00426385 -0.014603 -0.0131538 0.122175 0.00574087 -0.0610873 -0.0125407 -0.0176128 0.0486023 -0.0106457 0.0176128 -0.0405763 0.00271716 0.00238274 0.0280913 -0.0134883 0.00660479 0.112811 -0.0273109 0.0173898 0.00813755 -0.00741297 -0.079369 0.0102555 0.0559596 0.0811525 -0.0700052 -0.045927 -0.000411058 0.0163866 0.0869491 0.091854 0.103893 -0.0101998 -0.165872 0.0766936 0.0192849 0.0294289 0.00869491 -0.0135997 0.123958 0.105677 0.0445893 -0.0205111 -0.0193963 0.0300978 0.0593038 -0.00582448 -0.0267536 0.14001 -0.0327731 -0.0434746 -0.0543989 -0.0659922 -0.0110916 -0.0381239 0.0637627 0.123066 -0.0414681 0.00210406 0.0726806 -0.0284257 -0.0443664 0.0642086 -0.0336649 0.0279798 0.0343338 -0.0278683 -0.00443106 0.0659922 -0.0445893 -0.0363403 -0.0434746 0.10969 0.0352255 -0.0869491 0.0033024 -0.0372321 0.0278683 -0.0122063 0.0323272 0.0552907 0.0127637 -0.0133211 -0.0882868 0.0526154 0.00296798 0.0158292 -0.0268651 -0.0361173 -0.0137112 0.00947523 -0.0195078 0.0561825 -0.0296519 -0.0784772 0.0147145 0.0160521 0.0802607 -0.140902 0.0318814 -0.00381796 -0.010367 0.062425 -0.0215143 -0.00953096 0.0448122 -0.0022434 -0.0798149 -0.0588579 0.00299584 0.0327731 -0.00392943 -0.108352 0.045704 0.0651004 -0.00249421 -0.0138227 -0.0726806 -0.0838279 -0.0141014 0.0601956 -0.079369 -0.0445893 0.00986538 -0.0370091 -0.0363403 -0.0606414 -0.0566284 0.0735723 -0.0651004 -0.0619791 -0.0494941 0.00914081 -0.0686675 0.0370091 0.027088 0.0196193 -0.0405763 -0.0124293 0.0358944 -0.0503859 0.0150489 0.00218766 -0.000377964 0.0327731 -0.0158292 0.0856115 -0.0347797 0.00969817 -0.020734 -0.0198422 0.0104227 0.121283 0.0423598 0.0976506 0.0436975 -0.123066 -0.0338879 0.00746871 0.0651004 0.0766936 0.0122621 -0.0691134 -0.00688347 0.100326 0.0515006
astronaut -0.0196583 -0.0145702 -0.0721574 0.0102917 -0.0460235 0.00335347 0.0744702 -0.00462548 0.0652192 -0.0578184 0.0423231 -0.0587435 -0.0716949 -0.0126044 -0.0298343 0.166517 -0.000664912 -0.0450984 0.0698447 3.25229e-05 -0.0411667 0.0679945 -0.0543493 -0.0390853 0.00302101 -0.0146859 -0.0638316 0.0147437 0.0376976 0.0163048 0.00372929 -0.0911219 -0.0212772 0.0196583 0.0202365 -0.134139 0.0698447 0.0550432 -0.0370038 -0.0494926 -0.0605937 -0.0855713 0.162817 0.159116 -0.0735451 -0.041398 -0.0021971 0.0298343 0.087884 -0.0511115 -0.0372351 -0.00919313 -0.043942 0.0142812 0.00302101 -0.15079 -0.00370038 -0.0146281 0.0721574 -0.0246307 0.0934346 -0.10176 0.0200052 -0.0153797 -0.0400104 0.0656817 -0.0180394 0.0208146 0.0851087 -0.0316845 0.00255847 -0.0536555 -0.0656817 0.0125466 -0.127663 0.0212772 0.0146281 0.00948222 -0.00711167 -0.0174612 0.018155 0.0393165 0.0118528 -0.0638316 -0.0638316 -0.0241681 -0.00497239 0.0511115 0.0999103 0.00442311 0.031222 -0.0661443 0.00289092 0.0568933 0.0823335 0.0264808 0.0758578 0.14154 0.015611 0.00494348 0.0689196 -0.161892 -0.0596686 -0.0566621 0.0139342 0.0712323 0.0624439 0.0111011 0.0144546 0.0874215 -0.031222 0.0151484 0.03631 0.0596686 -0.0548119 4.74292e-05 -0.0483362 0.0478737 0.0264808 0.0707698 -0.0989852 -0.0772454 -0.0262496 0.00618657 0.0319158 -0.0615188 0.0157266 -0.00586857 0.063369 0.0948222 -0.077708 -0.082796 -0.0121997 0.03631 0.043942 0.0832586 -0.0515741 0.00462548 2.91351e-05 -0.00393165 0.0203521 0.0446358 -0.0624439 -0.0400104 -0.0578184 0.00248619 -0.00855713 -0.010523 0.00198028 -0.0183863 0.106386 -0.0524991 0.018155 -0.0174612 -0.0515741 -0.119337 -0.101298 -0.038854 0.0397791 -0.0948222 -0.0106964 -0.0114481 0.0629065 0.0656817 0.0693821 -0.0262496 0.0938971 0.0740076 0.0164204 0.010812 0.0293718 0.0712323 -0.0518053 0.0744702 -0.0179237 -0.00442311 -0.0666068 0.0693821 0.0234743 -0.0508802 -0.0809458 0.00988695 -0.00633112 -0.0605937 0.068457 0.0460235 -0.0504177 0.000142739 0.00873058 -0.00552166 -0.0307594 0.0353849 0.0585123 0.00229828 -0.0169986 0.0349223 0.0264808 0.0230117 -0.0508802 -0.0610563 -0.0279841 -0.00372929 -0.0330721 -0.0370038 -0.0418606 -0.0615188 0.0298343 -0.14154 -0.0989852 -0.0962099 -0.0302969 0.0437107 0.0869589 0.0241681 0.0307594 0.0349223 0.00942441 0.0804833 0.0302969 -0.0605937 0.0271747 -0.0864964 0.0543493 0.041398 0.0323783 0.0200052 -0.0411667 -0.0372351 0.0619814 -0.0689196 0.0152641 -0.14339 -0.0758578 0.0125466 0.0832586 -0.0744702 0.000384854 -0.087884 -0.0397791 -0.0335347 0.00560839 -0.0753952 0.00549275 -0.00740076 -0.00890404 -0.0217397 -0.0804833 -0.092047 0.0235899 0.0102917 -0.125813 -0.123038 0.0730825 0.0915844 -0.0128357 -0.0441733 0.0504177 -0.100835 -0.0578184 -0.131363 0.0280998 -0.087884 0.00289092 0.0402416 0.0818709 0.00838367 0.0178081 -0.0137608 -0.0381602 0.0274059 -0.0753952 0.0101182 0.0450984 0.0585123 -0.0148015 -0.023243 0.0271747 -0.03631 -0.0323783 -0.077708 0.0234743 0.0874215 0.00670694 -0.0520366 -0.00378711 0.0420918 -0.00310774 -0.0131248 0.0915844 0.0948222 0.07262 0.0550432 -0.0795582 -0.0467173 0.0224336 0.0427856 -0.027059 0.00352692 -0.00396056 -0.0744702
astronomer 0.0174056 -0.0722495 0.0626162 -0.0112206 0.0626162 0.0862615 0.0268199 -0.0735631 0.0613026 -0.0306513 0.0380952 -0.0429118 -0.0343732 -0.00957853 -0.0542966 0.0696222 0.0514504 0.0591132 0.0591132 -0.0313081 -0.0229885 0.00686918 0.035249 -0.0954569 0.0188287 -0.0586753 -0.0112753 -0.00110837 -0.0595511 -0.0440065 -0.0643677 0.0178434 0.0139026 0.0126984 0.0862615 -0.10728 0.00593869 0.0477284 0.0152162 0.0726874 0.0461959 0.0174056 0.0235358 0.139244 0.0203612 -0.117351 -0.00555555 -0.0486042 -0.00451559 -0.10509 -0.0339354 -0.00914066 -0.0295566 -0.0608647 -0.0488231 -0.0783798 0.0440065 -0.0683086 -0.0536398 -0.0972084 -0.0306513 -0.0216748 -0.0251779 0.0100164 -0.0264915 0.000937328 -0.0154351 0.0405035 0.0310892 0.0148878 -0.0147783 -0.0370005 -0.0383141 -0.00771756 -0.0972084 0.088013 -0.0542966 0.00738915 -0.0424739 0.0081007 0.133114 0.0652435 0.0431308 -0.0972084 -0.0132457 -0.0224411 0.0661192 0.0130268 -0.00881225 0.0604268 -0.00151888 -0.081007 -0.106842 0.0444444 -0.00623973 0.0958948 0.0932675 0.0202518 0.104652 -0.0656814 -0.0050082 -0.0446633 0.00602079 -0.0389709 0.0836343 0.0538587 -0.00519977 0.147126 -0.0542966 -0.00552818 -0.0361247 -0.0337164 0.0551723 0.0291187 0.0648056 0.0435686 -0.0227695 0.0164203 0.136617 0.0343732 0.0299945 0.0189381 0.0326217 -0.0518883 -0.0187192 -0.0389709 -0.0726874 -0.0385331 -0.0236453 0.0993978 0.0350301 -0.0713737 -0.0156541 0.0783798 0.0569238 0.0253968 -0.0779419 0.0512315 -0.0141215 0.167269 -0.0167487 0.0306513 -0.0556102 0.0169677 0.0385331 0.0431308 0.0302134 -0.077504 -0.0146688 0.0256157 0.0928296 -0.08451 -0.104652 0.000526819 0.0582375 -0.0643677 0.074001 -0.0151067 -0.00514504 -0.0735631 -0.0648056 -0.0206896 0.119102 0.0218938 0.0972084 0.0897645 0.0945811 0.0145594 0.0198139 -0.0248494 0.0551723 0.0577996 0.0249589 0.154132 0.0011289 0.042255 -0.0827585 0.0341543 0.0796934 -0.045758 -0.00155309 0.04948 0.0205802 -0.0100164 0.00366721 -0.00034209 -0.0411603 -0.0542966 -0.0788176 0.00190202 -0.00799123 0.0215654 0.0718116 0.0731252 -0.0853858 0.0709359 0.00506294 0.0244116 0.0553913 0.0286809 -0.0361247 -0.0652435 -0.0276956 0.00555555 0.00632183 -0.00284619 -0.0206896 -0.0299945 0.0112753 -0.0356869 -0.0328407 0.0269294 0.173399 -0.0461959 -0.0130268 0.059989 0.02474 -0.0235358 0.0235358 -0.0937054 0.0648056 -0.0766282 0.0713737 0.0166393 -0.10728 0.0101806 0.0551723 -0.00804597 0.0461959 0.0268199 0.0365626 -0.0505746 -0.0989599 0.0295566 0.114723 -0.056486 0.00489873 -0.111658 0.00298303 -0.0116037 0.0125342 -0.130487 -0.0661192 -0.0310892 -0.00415982 -0.0444444 -0.0238642 0.00152572 0.0016694 0.00738915 -0.0674329 -0.132238 -0.00320197 0.0888888 -0.0154351 -0.0722495 -0.0304324 -0.125232 -0.0831964 -0.0858236 -0.0365626 -0.139244 0.0013752 0.0268199 0.0232074 0.0556102 0.0207991 -0.0174056 0.0409414 -0.0110016 0.00180624 -0.098522 -0.0514504 0.0976463 -0.0112753 0.0391899 0.00355774 -0.0453201 0.0604268 -0.0341543 -0.00235358 0.066995 0.0288998 0.0700601 0.0391899 -0.0297755 0.0389709 -0.0110564 0.0402846 -0.0141215 0.0932675 -0.00875751 -0.070498 0.0595511 0.0319649 0.098522 -0.070498 0.024521 0.0376573 -0.0310892
athlete 0.00081232 0.0348559 0.0522839 0.0112248 0.0640995 0.026585 0.11402 0.00376621 0.0197911 -0.0502162 -0.0416499 -0.0921614 0.0392868 -0.0324928 0.054647 0.11402 -0.0317543 0.0323451 0.0118894 -0.0528747 -0.0608502 0.118746 -0.061441 -0.0838905 -0.00945246 -0.150058 -0.0292435 0.1217 0.0682349 0.0511023 0.0428314 -0.0113725 0.0366283 0.0248127 -0.0160987 -0.0431268 0.065281 0.0177972 0.00697857 0.0785735 0.00960015 -0.0578963 0.0395822 0.0499208 0.0587825 -0.0101909 -0.0132925 -0.0262896 0.0384006 0.0202342 0.0909799 -0.00893553 -0.0697119 -0.0392868 0.0838905 -0.0292435 -0.0104125 0.0443084 0.00258466 -0.0132925 0.010634 -0.0779828 -0.0224496 -0.0422407 0.0490346 -0.0282097 0.0434222 0.082709 0.0472623 0.0457853 -0.00660933 -0.0188311 -0.0856629 -0.044013 -0.000729242 0.0134402 -0.0209726 -0.0646902 -0.0169849 -0.0410591 -0.038696 0.0189049 0.0296866 0.103977 0.0270281 -0.0389914 -0.0573055 0.102205 0.044013 -0.0317543 -0.0549424 -0.0395822 -0.0373667 0.0274712 0.0576009 -0.0463761 0.0670534 0.152421 0.0821182 -0.106931 -0.0567147 0.0199388 0.0998416 -0.0791643 0.061441 -0.0112248 -0.0184618 -0.0862537 -0.0163203 0.00878783 -0.102795 0.0251081 -0.0239265 0.0531701 0.024665 0.0448992 -0.127017 0.00337851 -0.0369237 -0.0116679 -0.0490346 -0.0317543 0.0336744 0.0256989 0.00524316 -0.0726658 0.0172803 0.0549424 -0.0166156 0.0505116 -0.0694165 -0.0454899 -0.0132187 0.0446038 -0.0152125 -0.137651 -0.0015231 0.0797551 -0.0254035 0.0673487 -0.0249604 0.0205296 -0.00228004 0.0466715 -0.0107817 0.0886168 0.0240742 -0.0074955 -0.0138094 -0.0251081 0.0605548 0.0416499 -0.0862537 -0.00524316 -0.0564193 0.0410591 0.036776 -0.0487392 0.0138094 -0.0451946 0.0311636 0.0581917 0.189049 0.0850721 -0.0640995 -0.0327882 -0.0133664 -0.0723704 -0.00122771 0.0797551 -0.033379 0.00337851 -0.0327882 -0.0844813 -0.0729611 -0.0112248 0.0992508 -0.0398775 0.0401729 -0.0670534 0.114611 0.0321974 0.0326405 -0.00177234 -0.0317543 0.0528747 -0.0463761 0.0252558 0.0448992 0.0111509 0.09866 0.033379 0.0590779 0.0838905 0.0576009 -0.00793859 0.0711888 -0.00867706 0.033379 -0.0225973 0.0378098 0.0434222 -0.0230404 0.0166156 -0.0434222 -0.109294 -0.000378467 -0.135288 0.0738473 -0.0171326 -0.0632133 -0.0347082 0.0434222 -0.0122587 -0.031902 0.0661672 -0.0146956 0.0090463 -0.0342652 -0.0200865 -0.00385852 -0.0697119 0.00347082 -0.0016708 0.0478531 0.0992508 0.0756196 -0.0897983 -0.0282097 -0.026585 0.0945246 0.0629179 -0.0267327 -0.0593732 0.00797551 -0.0217111 0.0192003 -0.0620317 0.0658718 -0.0335267 0.0289481 -0.105159 0.0676441 -0.0416499 0.0679395 0.0233358 -0.168963 -0.0217111 -0.0351513 -0.0323451 -0.0147695 -0.0156556 0.0162464 0.0897983 -0.00336005 0.0756196 0.0243696 -0.0448992 -0.0360375 0.0886168 0.0874352 -0.00631395 0.00849244 -0.0478531 0.0184618 0.0516931 0.0744381 0.0874352 -0.115202 0.0552378 -0.0611456 0.0463761 -0.0747335 0.0292435 -0.0676441 0.013071 -0.0121848 -0.111657 0.0155818 -0.00690472 0.0389914 -0.0124802 0.044013 -0.00886168 -0.0939338 -0.00192003 -0.127017 0.0344128 0.0992508 0.0688257 0.0469669 -0.0558286 -0.150649 -0.0815274 0.0197911 0.119337 -0.00893553 0.0416499 -0.0528747 -0.0144741
athletic_director -0.0149941 -0.0224911 0.0458909 -0.0122679 -0.0890556 -0.0690635 0.127222 -0.0492986 -0.0163572 0.0431647 0.0118703 -0.0926905 0.0271483 -0.0767877 0.0238542 0.0477084 0.0540695 0.0831489 0.0251037 -0.0249901 -0.0329415 0.0574772 0.0293066 0.0379395 0.0867838 -0.0561141 -0.0672461 0.0908731 -0.0197649 0.0622481 -0.018629 0.0454365 -0.00110042 -0.0121543 0.0486171 -0.0636111 0.0972342 0.0467996 0.0872381 0.0495258 -0.042256 -0.0122679 0.0162436 -0.085875 -0.0290794 -0.0836032 -0.011132 -0.0287386 -0.0154484 0.0922362 0.0191969 -0.0135174 -0.0645199 0.0129494 0.0781508 -0.113591 -0.0193105 0.0165843 0.0324871 -0.0552054 -0.0967798 -0.026694 0.0406657 0.10723 0.0713354 -0.0272619 -0.0320328 0.0517977 0.0438463 0.036122 0.00274039 0.0297609 -0.101323 -0.005282 0.0245357 0.0220367 -0.0686092 -0.0917818 -0.0177202 -0.0156756 -0.0147669 -0.0218095 -0.12904 0.0826945 0.047254 -0.024195 -0.0681548 0.0524792 0.0233998 0.0595219 -0.0313512 -0.0517977 0.0214688 0.0686092 0.0322599 -0.0329415 -0.01613 0.070881 0.0264668 -0.0106776 -0.0558869 0.0458909 0.0483899 -0.0599762 0.0886012 0.0622481 -0.126314 -0.0157892 -0.0280571 -0.0767877 -0.0654286 0.0406657 0.0976885 -0.0338502 0.120861 0.143579 0.0302153 0.0411201 0.0976885 0.0565685 -0.0281707 0.0399842 0.0549782 -0.0039189 -0.0631568 -0.10723 -0.0767877 0.00673029 0.0182882 0.0318056 0.0556598 -0.176294 0.0415744 0.00276879 -0.00761062 -0.0216959 0.114954 0.033623 -0.0338502 0.0763334 -0.0958711 0.00437327 -0.0681548 -0.0931449 -0.02056 0.0981429 -0.0331687 -0.0151076 0.00363492 -0.0112455 0.109502 0.0488443 -0.0586131 0.0331687 -0.0677004 0.0552054 0.065883 0.0508889 0.0486171 0.0386211 -0.105867 0.00817858 0.0445278 0.0985973 0.0699723 -0.0776965 -0.0374851 -0.00443006 -0.00766742 0.128131 0.139036 0.0667917 0.00965526 -0.0420288 -0.0249901 0.00755382 -0.0517977 0.0772421 -0.02056 0.0227183 -0.0119271 0.0289658 0.00707106 -0.108593 -0.054751 0.0293066 -0.0529336 0.0424832 0.0890556 0.05725 -0.00241382 -0.0109048 -0.0781508 0.0963255 -0.0899643 -0.00749703 0.0531607 -0.0201057 0.0159028 0.0178338 -0.0872381 -0.0078378 0.070881 0.0159028 -0.00445846 -0.106321 0.0579316 -0.102232 0.00502642 -0.052252 -0.0173795 -0.00431647 0.0454365 -0.0631568 0.0147669 0.0461181 -0.0704266 0.00724145 -0.0740616 -0.0118703 0.0349861 -0.0038905 -0.0393026 0.0269211 0.0954167 0.0395298 0.02056 0.0293066 -0.0140853 0.0308968 -0.0110184 0.0304425 -0.0581588 -0.00319476 0.0313512 -0.0302153 -0.00414608 -0.127222 0.00715625 -0.0552054 -0.0122111 -0.0206736 0.0247629 -0.0365764 -0.0290794 -4.2153e-05 -0.151758 0.0269211 -0.0590675 0.00019346 0.0667917 0.0171523 0.00298177 -0.031124 0.0210144 -0.0677004 0.018061 -0.0477084 0.0152212 0.0258988 0.0985973 0.0508889 0.00732664 -0.0290794 -0.0245357 0.0168115 0.00795139 0.036122 0.0273755 -0.0181746 0.0338502 0.0182882 -0.0101096 0.0281707 -0.0203328 -0.00431647 0.0445278 -0.0890556 0.0443006 -0.0699723 -0.0663373 0.0452094 0.0343046 -0.0595219 0.0290794 0.0393026 -0.0107344 0.0386211 0.109048 -0.00690067 -0.0790596 0.00698587 -0.0370308 -0.00823537 0.227183 0.0636111 0.0452094 0.0103936 0.0374851 -0.0198785
attorney -0.0258294 -0.03853 -0.0116304 -0.0676416 -0.0559399 -0.000564126 -0.0248305 2.25762e-05 0.0352478 -0.0252586 0.0627896 0.0470922 -0.020692 0.0413841 -0.0450944 0.0810557 0.0804849 0.0970386 -0.060221 0.0148412 0.0459506 0.0513733 0.0164823 0.0656437 0.0119871 -0.0222618 -0.0993218 0.0191223 -0.0930428 -0.0205493 0.0191223 -0.0321083 0.0184088 0.0499463 0.141562 0.0298251 0.110167 0.112451 -0.0476631 -0.0134142 0.00941845 0.0699248 0.0272564 -0.0413841 -0.0890471 -0.0289689 -0.0234034 -0.00784871 -0.0120585 0.0884763 0.0764892 0.0582231 -0.089618 0.0185515 -0.030824 0.0867639 -0.000900817 -0.03853 -0.0827682 -0.0533712 -0.00272921 0.0335354 -0.0456652 0.0804849 0.0496609 0.00101676 0.109026 0.0306813 -0.0205493 -0.0453798 0.0647875 -0.0170531 -0.00645734 0.0159828 -0.0804849 -0.0109168 -0.019265 -0.0248305 0.0433819 -0.0884763 0.0662145 0.025544 -0.124438 0.0285407 0.0450944 -0.0393862 -0.0508025 0.0593648 0.0323937 -0.0129147 0.142133 -0.0365322 -0.10503 0.0659291 0.0348197 -0.0298251 0.0505171 0.0702102 -0.037103 -0.046236 -0.0402425 -0.0376738 -0.0442382 -0.0459506 0.0570815 -0.0323937 -0.0793433 -0.0161969 -0.0508025 -0.0642167 -0.00663572 0.00585085 -0.0522296 0.0160542 -0.030824 -0.00467355 -0.0132714 0.00813411 0.113021 0.0391008 8.52878e-05 -0.00610059 -0.0133428 -0.0508025 0.0573669 -0.0254013 -0.0157688 -0.0799141 0.143275 -0.0321083 0.0907596 -0.170103 -0.0112736 -0.0326792 -0.0436673 -0.0970386 0.0136282 -0.0339635 0.0336781 0.00406706 0.0195504 0.017838 -0.0804849 0.0468068 -0.0565107 0.00321083 -0.0753476 0.0172672 0.000807168 -0.0112736 0.115305 0.0201212 0.0321083 -0.0622188 -0.0312521 0.0742059 0.0907596 -0.0100606 -0.0010792 0.0844806 -0.0391008 -0.0215483 0.108455 0.0582231 0.0473776 0.032251 0.092472 -0.0493755 0.0821974 0.069354 0.0607918 0.0907596 0.00213164 0.0547982 -0.0430965 -0.109596 0.0318229 0.0436673 -0.0450944 -0.0333927 -0.0251159 -0.0117731 -0.121013 -0.136996 -0.00970386 -0.0776308 0.0298251 0.0844806 0.0388154 0.0368176 -0.025544 -0.0422403 -0.0699248 0.0428111 -0.0228326 0.0550836 -0.0727789 0.0238315 -0.0114163 0.0565107 -0.0208347 -0.00219407 0.0947553 0.044809 0.0613626 0.0102747 -0.0430965 -0.000532909 -0.0195504 0.026971 -0.0182661 -0.00742059 0.0422403 -0.0204066 0.0124152 0.101605 -0.0516588 -0.0605064 0.0450944 -0.083339 -0.0562253 0.00369246 -0.0215483 0.0919012 0.0430965 -0.0218337 0.0436673 0.0627896 -0.0724935 0.0570815 0.029397 0.0496609 -0.179236 -0.0764892 -0.0776308 -0.0135569 0.0349624 -0.0576523 -0.00531571 -0.0291116 -0.0499463 -0.175811 0.0241169 -0.0285407 -0.0349624 0.0373884 -0.0941845 -0.013985 0.106742 -0.0459506 -0.0266856 -0.0559399 0.0530858 -0.0528004 0.0516588 -0.0164823 -0.0352478 -0.0479485 0.0244023 -0.0687832 -0.0998926 -0.0730643 0.007706 -0.0499463 -0.013985 0.0850514 0.0396716 -0.0373884 0.0144131 0.00324651 0.0288262 0.00702816 0.0519442 0.0433819 -0.00265786 -0.037103 -0.0175526 0.0186942 0.0396716 -0.0212629 0.102176 0.00492328 0.0144844 0.0656437 -0.0793433 0.0930428 0.0445236 0.0430965 0.0630751 0.0622188 0.0182661 -0.030824 0.0759184 -0.0149125 0.0104887 0.0312521 0.0286835 -0.187227 0.0349624 0.00749195
author 0.0428037 -0.0463438 0.0137583 0.030574 0.0134365 0.0547114 0.0447347 0.0482748 0.0207582 -0.0289649 -0.000139544 -0.024942 0.113929 0.034436 -0.072734 0.0403899 0.0627572 0.00671824 0.0453783 -0.0225282 0.0345969 0.0511713 0.0186663 -0.0605044 -0.0392635 -0.000296689 -0.0150456 0.0400681 -0.131307 -0.046022 -0.0392635 -0.0368498 -0.0310568 0.0469875 0.0236547 0.0185858 -0.0362061 0.0349188 0.0185858 -0.00691939 -0.0333096 -0.0204363 -0.017218 0.164778 0.0160916 -0.049884 -0.00396256 -0.00724122 -0.0524586 -0.0476311 -0.133238 0.0630791 -0.0547114 -0.0971933 -0.0341142 -0.0204363 -0.0585734 -0.0553551 -0.00352004 -0.0572861 0.08432 -0.044091 -0.0405508 0.0391026 0.0318614 0.0514931 -0.00812626 0.184088 -0.0275166 -0.0189076 0.0107009 0.0040229 0.0158502 -0.0399072 -0.0691939 -0.0762742 -0.0775615 0.117791 0.0428037 0.0411945 0.0695157 0.0669411 0.111354 0.044091 -0.0179421 -0.0370107 0.0418382 0.0177008 -0.0621136 -0.0978369 0.00615504 -0.122296 -0.0650101 0.0485966 0.0659756 0.0601826 0.0849637 -0.0233328 -0.000502863 -0.0601826 -0.0138388 -0.0672629 0.0310568 -0.0205972 0.0566424 -0.0150456 -0.0814235 0.0165743 -0.082389 -0.0473093 -0.00036709 -0.0321832 0.0547114 -0.0110227 0.00354015 -0.0450565 -0.0836763 0.0334705 0.0659756 0.0933313 0.0685502 0.0415163 0.0814235 -0.0214018 -0.020034 0.0190685 -0.0637227 0.00744237 -0.173789 0.0640446 -0.0244592 -0.0643664 0.0252638 0.0391026 -0.00281603 0.0156089 0.0595389 -0.0109423 -0.00141807 0.0231719 0.0193904 0.0798143 0.0341142 -0.0485966 0.0149652 -0.020195 0.0263902 0.0270339 -0.00428439 -0.100412 0.0714467 -0.0614699 0.0563206 0.0531023 0.030735 -0.0820672 -0.0679066 -0.0444128 -0.012471 -0.0180226 0.10363 0.0158502 0.111998 0.0952623 0.0177008 0.0672629 0.0352406 -0.0463438 -0.0228501 0.082389 0.0701594 -0.00480737 -0.02108 -0.0563206 -0.0197927 0.0156893 0.0276776 0.0150456 0.00748259 0.018264 -0.0170571 -0.0672629 0.030735 -0.0588953 -0.0360452 -0.0566424 -0.0959059 -0.0292867 0.0123905 0.0704812 0.0352406 -0.0217237 -0.0473093 0.040229 -0.0131951 -0.0585734 -0.0437692 -0.0349188 0.0559988 -0.0195513 -0.0492403 0.0315395 0.0434473 0.0601826 -0.0173789 0.0830327 -0.00663779 0.0769179 -0.126802 -0.000631092 -0.0563206 -0.00180025 0.00856878 -0.00728145 -0.000925267 0.0601826 0.0101779 -0.0672629 0.0485966 -0.00675847 0.0566424 -0.049884 -0.000673836 -0.0366889 0.0695157 -0.0354015 0.136457 -0.0675847 -0.00732168 -0.00107613 0.0592171 -0.0326659 -0.151905 -0.0270339 -0.0370107 -0.0366889 0.0782052 0.0154479 -0.13002 -0.138388 -0.0214018 -0.16864 -0.0601826 -0.10363 0.0408727 0.0164939 -0.086251 0.049884 0.0255856 0.0242983 -0.0156893 -0.0376543 0.0281603 0.082389 0.0173789 -0.0349188 -0.0508495 -0.0685502 -0.00591366 -0.026873 -0.101055 -0.024942 0.0466656 -0.0814235 0.00424416 -0.0136779 -0.0389417 -0.0143215 0.0299304 -0.0868946 -0.00547114 -0.0595389 -0.160272 0.0121492 0.0431255 0.0959059 -0.0614699 0.0672629 0.0399072 -0.0991243 0.0685502 -0.141606 -0.0453783 -0.0384589 0.125514 0.00812626 -0.0634009 0.0695157 -0.0223673 0.00386198 0.00720099 -0.0653319 0.00317809 0.0313786 -0.00122698 -0.0313786 -0.046022 0.04216 0.0376543 0.0373325
baker -0.0507855 0.00292552 -0.0541508 0.0513973 0.0685298 0.0905572 0.0159087 -0.0807673 -0.091781 -0.0206507 0.0180503 0.00369036 -0.0246279 -0.0354886 -0.0504795 0.072507 0.0250868 -0.019427 0.00715127 -0.0737307 0.0315115 0.0250868 0.0764842 -0.0195799 0.0526211 -0.0893335 -0.01675 0.0223334 -0.0413014 -0.00753369 0.0100959 -0.0400777 0.00726599 0.0553745 -0.067612 0.00129067 0.125434 0.0142261 0.0110137 0.0465024 0.0335001 -0.0313585 0.0341119 0.028911 0.0301348 0.000817424 -0.0513973 0.0663882 -0.0370183 0.00458905 -0.0247809 0.0322763 0.00103254 -0.0110137 -0.110749 -0.11442 0.0795435 -0.000201966 -0.160311 -0.0517033 0.0328882 0.0397718 -0.0507855 0.0670001 0.0850504 0.016903 -0.0119315 -0.048032 -0.0517033 -0.00476114 0.111361 0.011855 -0.110137 0.0356416 -0.0299818 0.0755663 -0.0361005 -0.0147614 0.00214156 -0.072201 0.0985116 0.0234041 -0.0091781 -0.0232512 0.0055451 -0.0279932 -0.017056 0.0639407 0.0296759 -0.0679179 -0.0137671 -0.0911691 -0.242302 0.024322 -0.0112432 -0.0575161 -0.0452786 -0.00921634 -0.0195799 -0.0887216 -0.038395 -0.134612 0.0362535 0.0266165 0.0123904 -0.0850504 0.00401542 0.103407 -0.0936166 -0.0666942 0.0422193 -0.0709773 -0.0905572 -0.0611873 -0.0278402 0.00328882 -0.121151 -0.0184327 -0.0111667 -0.0489499 0.0972878 0.0523152 0.00288728 -0.0660823 0.0179738 -0.0211096 -0.067612 -0.0296759 -0.0403836 0.0157557 -0.0471142 0.0406896 -0.0172854 0.00929282 -0.00780138 0.0136907 -0.0978997 -0.062717 0.0663882 0.00447432 -0.0144555 -0.0517033 0.0164441 -0.0599636 -0.0224863 0.0504795 -0.0712832 -0.0350297 -0.0991235 -0.00348003 0.00696006 -0.0279932 -0.0188916 0.0709773 -0.0344179 -0.0100194 -0.0189681 0.0461964 -0.0985116 -0.00184518 -0.0642467 0.0486439 0.0318174 0.00221804 -0.0114726 -0.0166735 0.0718951 -0.0688357 0.0553745 -0.067306 -0.0621051 0.0279932 0.00971349 -0.119315 -0.0605754 0.0936166 0.077402 0.00497147 0.168877 0.0416074 0.0495617 -0.0838266 -0.00330794 -0.0431371 -0.00738072 0.043443 0.0443608 0.0425252 -0.0107078 0.0972878 -0.0341119 0.106466 0.0948403 0.0377832 -0.00634818 0.00359475 -0.0437489 0.0195799 -0.0151439 -0.0486439 -0.155416 -0.0178208 0.0217215 -0.0333471 -0.0223334 -0.0144555 -0.0446667 0.0807673 0.0155263 -0.0575161 -0.0310526 -0.038701 0.0985116 0.116256 0.0188151 -0.0377832 -0.113197 0.0275343 -0.0177443 0.0838266 0.12421 -0.00718951 0.0354886 -0.0630229 -0.00172089 -0.01675 0.014532 -0.0740367 -0.0203448 -0.0523152 0.0523152 -0.0783198 -0.0801554 0.0728129 -0.0148379 -0.112585 0.138283 -0.0328882 -0.0991235 0.0250868 0.0807673 -0.0679179 -0.0137671 0.0422193 0.0465024 -0.048338 -0.0752604 -0.0275343 -0.0253927 -0.0755663 -0.0324293 0.00925458 0.102795 0.00669236 -0.0275343 0.0310526 -0.00902513 -0.0850504 -0.0330412 -0.00799259 0.0208037 0.00531565 -0.121151 -0.0166735 -0.0141496 0.0310526 0.00764841 0.0190446 -0.0562923 -0.0605754 0.0165971 0.0110902 -0.000979953 0.0354886 0.00520092 -0.0141496 -0.0715892 -0.0235571 -0.0324293 -0.0394658 -0.0180503 -0.00037286 -0.0319704 0.120539 0.0171324 0.0148379 -0.0826029 0.0767901 -0.00558334 0.126046 -0.0256987 -0.0428311 -0.091781 -0.0081838 -0.038548 0.00397718 0.0204978 0.0130788 0.0419133 -0.00688357
ballerina -0.02823 -0.138655 -0.0454306 -0.0110294 0.0114889 0.05646 0.0924368 -0.0330882 -0.0512079 0.016938 -0.0194327 -0.046481 -0.0372898 0.0105698 0.0271796 0.0982141 -0.0386029 -0.016938 -0.0117516 -0.032563 0.0396533 -0.0299369 -0.0186449 0.0362394 -0.00508796 0.0166097 -0.046481 0.00466123 -0.0244222 -0.0119485 0.0682772 0.00174796 0.0211397 0.0393907 0.0256039 -0.125 0.0632877 0.134454 -0.0275735 0.00328256 0.0145089 -0.137605 0.0882351 -0.0751049 0.0756301 0.0519957 0.02521 0.026917 0.102416 0.0672268 0.00958506 0.0313812 -0.0651259 -0.0217962 0.0346638 -0.0242909 0.0638129 -0.0808822 -0.0950628 0.0133272 0.0580356 0.0814074 -0.0533087 0.00279017 0.0206145 0.037815 0.0751049 0.0730041 0.0504201 0.0296743 0.0414915 0.00991332 -0.140756 -0.021271 -0.082983 0.0519957 0.0719536 -0.0204832 -0.00241268 -0.0174632 0.015625 0.0409663 -0.000496487 -0.0887603 -0.082983 0.144958 -0.047794 0.0391281 0.0278361 -0.0168067 -0.0422793 -0.00201057 -0.141806 0.0349264 0.00341386 0.0316438 0.0328256 0.0388655 0.0150998 -0.0640755 -0.0380777 -0.036502 0.0257352 -0.0622373 -0.0266544 0.0488444 0.0323004 -0.0414915 -0.0630251 0.000350823 -0.035189 -0.0370272 0.0112263 0.0443802 -0.0443802 0.0142463 -0.109243 -0.0546217 0.0601364 -0.00498949 0.0472688 -0.0472688 0.00479253 -0.0470062 0.0856091 0.0344012 -0.0588234 0.0787814 -0.0305934 0.0509453 -0.0316438 -0.00211725 -0.0199579 0.0346638 -0.0204832 0.00168231 -0.0651259 -0.0246848 -0.0346638 -0.00489101 0.0740545 -0.0089942 -0.0882351 0.0735293 -0.00643381 0.137605 0.00347951 0.177521 -0.121323 -0.0472688 0.119748 -0.0430671 -0.00349592 0.0934872 -0.0498949 -0.000165154 -0.0235031 -0.0253413 0.0126707 0.016741 0.113445 0.0638129 0.120798 0.0751049 0.023897 -0.036502 0.0164784 -0.10084 -0.00452993 -0.00129661 -0.156512 -0.00443145 -0.080357 0.00512079 0.0166097 -0.0835082 0.0596112 0.00505514 0.0174632 -0.0656511 -0.0219275 0.0501575 -0.0567226 -0.0106355 0.0344012 0.0556722 0.0575104 -0.0136554 0.0159532 0.0122768 -0.0543591 0.0344012 0.0745797 0.029543 0.0227153 0.018251 0.0441176 -0.0103072 0.0412289 0.0199579 -0.00377494 -0.0782561 0.00452993 -0.0433297 -0.0422793 -0.0199579 -0.0313812 0.0233718 -0.0530461 -0.00297071 -0.0643381 -0.0223214 0.0698528 -0.0407037 -0.0751049 -0.0393907 -0.103991 -0.0211397 -0.00164128 0.00505514 0.0334821 0.0346638 0.000434939 0.0261291 0.0401785 -0.0651259 0.00879725 -0.149159 -0.0449054 0.00800944 0.0311186 -0.0383403 -0.102941 0.0246848 0.0793066 -0.0435923 -0.0976889 -0.0530461 -0.0414915 -0.018251 0.0824578 -0.00479253 -0.0606616 -0.00475971 0.0187762 0.0133272 -0.0211397 -0.0493696 0.00984767 -0.0782561 -0.0483192 -0.0501575 0.0328256 0.153361 -0.0375524 0.0278361 -0.0651259 -0.0372898 -0.0808822 0.0840334 0.0311186 0.0514705 -0.0106355 -0.0100446 0.0375524 0.0730041 0.012605 0.0856091 -0.136554 0.0606616 -0.0798318 0.143907 -0.00224855 0.00104631 -0.0273109 0.0235031 -0.0569852 0.0089942 -0.0275735 0.0162815 -0.00387342 0.0299369 0.015625 0.0354516 -0.00303636 -0.0370272 -0.114496 0.00912551 0.0425419 0.0323004 -0.0509453 -0.0454306 -0.17647 -0.103991 0.0635503 -0.0231092 0.0808822 0.0380777 0.0359768 -0.0814074
